{"learner":{"attributes":{},"feature_names":["1","2","3","4","5","6","7","8","9","10","11","12","13"],"feature_types":["float","float","float","float","float","float","float","float","float","float","float","float","float"],"gradient_booster":{"model":{"gbtree_model_param":{"num_parallel_tree":"1","num_trees":"200"},"iteration_indptr":[0,1,2,3,4,5,6,7,8,9,10,11,12,13,14,15,16,17,18,19,20,21,22,23,24,25,26,27,28,29,30,31,32,33,34,35,36,37,38,39,40,41,42,43,44,45,46,47,48,49,50,51,52,53,54,55,56,57,58,59,60,61,62,63,64,65,66,67,68,69,70,71,72,73,74,75,76,77,78,79,80,81,82,83,84,85,86,87,88,89,90,91,92,93,94,95,96,97,98,99,100,101,102,103,104,105,106,107,108,109,110,111,112,113,114,115,116,117,118,119,120,121,122,123,124,125,126,127,128,129,130,131,132,133,134,135,136,137,138,139,140,141,142,143,144,145,146,147,148,149,150,151,152,153,154,155,156,157,158,159,160,161,162,163,164,165,166,167,168,169,170,171,172,173,174,175,176,177,178,179,180,181,182,183,184,185,186,187,188,189,190,191,192,193,194,195,196,197,198,199,200],"tree_info":[0,0,0,0,0,0,0,0,0,0,0,0,0,0,0,0,0,0,0,0,0,0,0,0,0,0,0,0,0,0,0,0,0,0,0,0,0,0,0,0,0,0,0,0,0,0,0,0,0,0,0,0,0,0,0,0,0,0,0,0,0,0,0,0,0,0,0,0,0,0,0,0,0,0,0,0,0,0,0,0,0,0,0,0,0,0,0,0,0,0,0,0,0,0,0,0,0,0,0,0,0,0,0,0,0,0,0,0,0,0,0,0,0,0,0,0,0,0,0,0,0,0,0,0,0,0,0,0,0,0,0,0,0,0,0,0,0,0,0,0,0,0,0,0,0,0,0,0,0,0,0,0,0,0,0,0,0,0,0,0,0,0,0,0,0,0,0,0,0,0,0,0,0,0,0,0,0,0,0,0,0,0,0,0,0,0,0,0,0,0,0,0,0,0,0,0,0,0,0,0],"trees":[{"base_weights":[-3.9477613E-2,-6.9307387E-1,6.8864423E-1,-9.1386074E-1,4.3981868E-1,3.575679E-1,1.5470573E0,-9.460057E-1,7.512446E-1,-5.4517522E-2,1.0518845E0,-3.782669E-1,1.0430425E0,2.3817897E0,1.297735E0,-1.0787393E0,-7.025534E-1,-8.360363E-2,2.4705884E0,-5.4749584E-1,2.3009062E-1,7.393551E-1,1.8097768E0,-6.1376953E-1,-2.3554915E-1,9.108429E-1,2.455285E0,2.6979313E0,9.957951E-1,1.7579975E0,1.0613909E0,-1.1763223E-1,-8.521367E-2,-8.6142555E-2,-4.4999566E-2,-6.96098E-2,2.3308765E-2,2.0979813E-3,2.9322812E-1,-8.869926E-2,3.692025E-2,1.6011313E-2,1.19861625E-1,6.262232E-2,1.6185986E-1,5.1588666E-2,2.4983656E-1,-1.1087071E-1,-3.3845317E-2,-3.0605128E-2,3.4507066E-2,1.4550342E-1,8.015078E-2,3.0582625E-1,1.3181603E-1,-3.845802E-2,2.776522E-1,-3.641134E-2,2.1984528E-1,2.74605E-1,1.6090922E-1,1.851089E-3,1.268453E-1],"categories":[],"categories_nodes":[],"categories_segments":[],"categories_sizes":[],"default_left":[0,0,0,0,0,0,0,0,0,0,0,0,0,0,0,0,0,0,0,0,0,0,0,0,0,0,0,0,0,0,0,0,0,0,0,0,0,0,0,0,0,0,0,0,0,0,0,0,0,0,0,0,0,0,0,0,0,0,0,0,0,0,0],"id":0,"left_children":[1,3,5,7,9,11,13,15,17,19,21,23,25,27,29,31,33,35,37,39,41,43,45,47,49,51,53,55,57,59,61,-1,-1,-1,-1,-1,-1,-1,-1,-1,-1,-1,-1,-1,-1,-1,-1,-1,-1,-1,-1,-1,-1,-1,-1,-1,-1,-1,-1,-1,-1,-1,-1],"loss_changes":[9.655672E4,2.6743793E4,2.727541E4,4.790164E3,5.276665E3,3.49366E4,5.5559414E3,2.8358125E3,2.433737E3,1.353866E3,1.8440244E3,1.1225347E3,6.692242E3,2.688371E3,2.235621E3,1.255E3,1.2424424E3,2.217344E2,6.263782E2,1.0995441E3,4.1428198E2,5.477092E2,2.0246313E3,1.7169912E3,8.5162976E2,1.9496621E3,2.099666E3,1.2128164E3,1.8695264E3,1.02175977E3,2.9354854E3,0E0,0E0,0E0,0E0,0E0,0E0,0E0,0E0,0E0,0E0,0E0,0E0,0E0,0E0,0E0,0E0,0E0,0E0,0E0,0E0,0E0,0E0,0E0,0E0,0E0,0E0,0E0,0E0,0E0,0E0,0E0,0E0],"parents":[2147483647,0,0,1,1,2,2,3,3,4,4,5,5,6,6,7,7,8,8,9,9,10,10,11,11,12,12,13,13,14,14,15,15,16,16,17,17,18,18,19,19,20,20,21,21,22,22,23,23,24,24,25,25,26,26,27,27,28,28,29,29,30,30],"right_children":[2,4,6,8,10,12,14,16,18,20,22,24,26,28,30,32,34,36,38,40,42,44,46,48,50,52,54,56,58,60,62,-1,-1,-1,-1,-1,-1,-1,-1,-1,-1,-1,-1,-1,-1,-1,-1,-1,-1,-1,-1,-1,-1,-1,-1,-1,-1,-1,-1,-1,-1,-1,-1],"split_conditions":[-8.161047E-3,1E0,1E0,1.8126415E0,3.22188E-2,1.2554994E-1,-6.886233E-1,-2.5410214E-2,9.751019E-2,-1.6699241E-1,1E0,-3.8171715E-1,4.5282702E0,-7.106769E-2,1.274032E-2,-1.2850094E-1,1.9559698E-1,-1.6699241E-1,-3.71166E-2,9.142834E-1,1.6329699E0,1.0136743E-1,-3.1410653E-2,1E0,1.2736267E0,1.3892104E-1,-1.8193446E-1,-1.444741E-1,5.549402E-1,-1.0621043E0,2.1995604E-2,-1.1763223E-1,-8.521367E-2,-8.6142555E-2,-4.4999566E-2,-6.96098E-2,2.3308765E-2,2.0979813E-3,2.9322812E-1,-8.869926E-2,3.692025E-2,1.6011313E-2,1.19861625E-1,6.262232E-2,1.6185986E-1,5.1588666E-2,2.4983656E-1,-1.1087071E-1,-3.3845317E-2,-3.0605128E-2,3.4507066E-2,1.4550342E-1,8.015078E-2,3.0582625E-1,1.3181603E-1,-3.845802E-2,2.776522E-1,-3.641134E-2,2.1984528E-1,2.74605E-1,1.6090922E-1,1.851089E-3,1.268453E-1],"split_indices":[3,11,11,0,7,3,7,7,8,6,12,7,6,6,8,3,0,6,2,0,0,8,8,12,0,3,2,4,0,0,8,0,0,0,0,0,0,0,0,0,0,0,0,0,0,0,0,0,0,0,0,0,0,0,0,0,0,0,0,0,0,0,0],"split_type":[0,0,0,0,0,0,0,0,0,0,0,0,0,0,0,0,0,0,0,0,0,0,0,0,0,0,0,0,0,0,0,0,0,0,0,0,0,0,0,0,0,0,0,0,0,0,0,0,0,0,0,0,0,0,0,0,0,0,0,0,0,0,0],"sum_hessian":[2.0289184E5,1.06917695E5,9.597414E4,8.9479516E4,1.743818E4,6.9262305E4,2.671184E4,8.7785305E4,1.6942117E3,9.647281E3,7.790899E3,3.340424E4,3.5858066E4,6.141409E3,2.0570432E4,5.680863E4,3.0976678E4,1.1410529E3,5.531588E2,3.530838E3,6.116443E3,5.5176943E3,2.2732048E3,1.2603251E4,2.0800986E4,3.2790293E4,3.0677737E3,4.999922E3,1.141487E3,6.9767915E3,1.359364E4,3.970543E4,1.7103201E4,1.9013424E4,1.1963254E4,3.886006E2,7.5245233E2,8.79236E1,4.6523523E2,2.576704E3,9.5413385E2,5.7054814E3,4.109614E2,4.8902886E3,6.274054E2,7.9022687E2,1.482978E3,4.503642E3,8.0996084E3,1.8549273E4,2.2517124E3,5.4836104E3,2.7306682E4,2.0035725E3,1.0642012E3,1.2417851E2,4.875743E3,5.360083E2,6.054788E2,9.113661E2,6.065426E3,2.2521467E3,1.1341493E4],"tree_param":{"num_deleted":"0","num_feature":"13","num_nodes":"63","size_leaf_vector":"1"}},{"base_weights":[-3.868311E-2,-6.4326274E-1,6.0202557E-1,-8.5282975E-1,3.7934163E-1,3.1471595E-1,1.3187546E0,-8.8437337E-1,6.815566E-1,-5.8874965E-2,9.157875E-1,-3.5066986E-1,9.0122235E-1,1.988142E0,1.1127788E0,-1.001867E0,-6.197498E-1,-1.1221942E-2,2.1687968E0,-4.8864374E-1,1.8292314E-1,6.0347044E-1,1.5072129E0,5.342936E-2,-4.9269527E-1,7.903697E-1,2.0475674E0,2.2268364E0,8.8057464E-1,1.6316233E0,9.312894E-1,-6.900641E-2,-1.0699528E-1,-7.5895384E-2,-2.8191058E-2,-6.0994297E-2,2.6835714E-2,5.377415E-2,2.5574347E-1,-7.989553E-2,3.0776251E-2,4.2703915E-2,-1.9114196E-2,4.5848854E-2,9.5249414E-2,2.4410705E-1,1.2792721E-1,-2.4502357E-3,5.556146E-2,-5.8674272E-2,-1.033066E-2,6.384572E-2,1.08544886E-1,3.1737983E-2,2.3182003E-1,2.3440497E-1,1.114642E-1,-3.3685815E-2,1.8732259E-1,6.755897E-2,1.7857948E-1,6.908535E-2,1.3170914E-1],"categories":[],"categories_nodes":[],"categories_segments":[],"categories_sizes":[],"default_left":[0,0,0,0,0,0,0,0,0,0,0,0,0,0,0,0,0,0,0,0,0,0,0,0,0,0,0,0,0,0,0,0,0,0,0,0,0,0,0,0,0,0,0,0,0,0,0,0,0,0,0,0,0,0,0,0,0,0,0,0,0,0,0],"id":1,"left_children":[1,3,5,7,9,11,13,15,17,19,21,23,25,27,29,31,33,35,37,39,41,43,45,47,49,51,53,55,57,59,61,-1,-1,-1,-1,-1,-1,-1,-1,-1,-1,-1,-1,-1,-1,-1,-1,-1,-1,-1,-1,-1,-1,-1,-1,-1,-1,-1,-1,-1,-1,-1,-1],"loss_changes":[7.839717E4,2.2315922E4,2.0233098E4,4.183375E3,4.16364E3,2.7373797E4,3.874125E3,2.6320547E3,1.794376E3,1.01319275E3,1.4697798E3,1.886112E3,4.735666E3,1.746416E3,2.0230586E3,1.2439922E3,1.2243213E3,1.9920868E2,3.4912207E2,8.678586E2,5.698525E2,2.6321313E2,5.821284E2,3.3455908E2,8.9035986E2,1.523043E3,1.5379219E3,7.063574E2,1.4201482E3,8.1967285E2,1.4768535E3,0E0,0E0,0E0,0E0,0E0,0E0,0E0,0E0,0E0,0E0,0E0,0E0,0E0,0E0,0E0,0E0,0E0,0E0,0E0,0E0,0E0,0E0,0E0,0E0,0E0,0E0,0E0,0E0,0E0,0E0,0E0,0E0],"parents":[2147483647,0,0,1,1,2,2,3,3,4,4,5,5,6,6,7,7,8,8,9,9,10,10,11,11,12,12,13,13,14,14,15,15,16,16,17,17,18,18,19,19,20,20,21,21,22,22,23,23,24,24,25,25,26,26,27,27,28,28,29,29,30,30],"right_children":[2,4,6,8,10,12,14,16,18,20,22,24,26,28,30,32,34,36,38,40,42,44,46,48,50,52,54,56,58,60,62,-1,-1,-1,-1,-1,-1,-1,-1,-1,-1,-1,-1,-1,-1,-1,-1,-1,-1,-1,-1,-1,-1,-1,-1,-1,-1,-1,-1,-1,-1,-1,-1],"split_conditions":[-8.161047E-3,1E0,1E0,1.8126415E0,5.360337E-2,1.2554994E-1,-6.886233E-1,9.489455E-2,1.3450865E-1,-1.6699241E-1,1.0974729E-1,-3.6745998E-1,4.5282702E0,-7.106769E-2,1.1965184E-1,1E0,9.4890475E-2,-1.4187203E-1,8.9077467E-1,9.142834E-1,-2.7005896E-1,1.1545365E0,-1.4187203E-1,1.2947427E0,-8.116503E-2,5.011161E-1,-4.37206E0,1.444132E-1,5.549402E-1,-1.972481E-1,1.3892104E-1,-6.900641E-2,-1.0699528E-1,-7.5895384E-2,-2.8191058E-2,-6.0994297E-2,2.6835714E-2,5.377415E-2,2.5574347E-1,-7.989553E-2,3.0776251E-2,4.2703915E-2,-1.9114196E-2,4.5848854E-2,9.5249414E-2,2.4410705E-1,1.2792721E-1,-2.4502357E-3,5.556146E-2,-5.8674272E-2,-1.033066E-2,6.384572E-2,1.08544886E-1,3.1737983E-2,2.3182003E-1,2.3440497E-1,1.114642E-1,-3.3685815E-2,1.8732259E-1,6.755897E-2,1.7857948E-1,6.908535E-2,1.3170914E-1],"split_indices":[3,11,11,0,7,3,7,7,5,6,5,1,6,6,5,10,5,3,7,0,1,7,3,7,6,7,5,5,0,7,3,0,0,0,0,0,0,0,0,0,0,0,0,0,0,0,0,0,0,0,0,0,0,0,0,0,0,0,0,0,0,0,0],"split_type":[0,0,0,0,0,0,0,0,0,0,0,0,0,0,0,0,0,0,0,0,0,0,0,0,0,0,0,0,0,0,0,0,0,0,0,0,0,0,0,0,0,0,0,0,0,0,0,0,0,0,0,0,0,0,0,0,0,0,0,0,0,0,0],"sum_hessian":[2.0238669E5,1.04129305E5,9.825739E4,8.641927E4,1.7710033E4,7.014177E4,2.8115615E4,8.4678945E4,1.7403248E3,9.747839E3,7.962196E3,3.2861242E4,3.728053E4,6.6135435E3,2.1502072E4,5.8639625E4,2.6039324E4,1.1879059E3,5.524189E2,3.5094973E3,6.2383413E3,5.2120376E3,2.7501582E3,8.545889E3,2.4315355E4,3.399496E4,3.2855686E3,5.4400464E3,1.1734971E3,5.569982E3,1.593209E4,1.0511979E4,4.8127645E4,1.8439803E4,7.5995205E3,3.7787003E2,8.100359E2,1.0680699E2,4.456119E2,2.5255605E3,9.839366E2,3.7749338E3,2.4634075E3,3.6842336E3,1.5278037E3,5.3758057E2,2.2125776E3,7.3985024E3,1.1473861E3,1.9584441E4,4.7309136E3,2.2443906E4,1.1551056E4,4.4475336E2,2.8408152E3,4.9203013E3,5.1974506E2,5.273234E2,6.461736E2,7.743274E2,4.7956543E3,9.817053E3,6.115037E3],"tree_param":{"num_deleted":"0","num_feature":"13","num_nodes":"63","size_leaf_vector":"1"}},{"base_weights":[-3.6726926E-2,-5.959066E-1,5.317532E-1,-7.980195E-1,3.4515223E-1,2.777169E-1,1.149679E0,-8.3743507E-1,2.8593898E-1,-5.2490365E-2,8.0545926E-1,-3.2264033E-1,7.892819E-1,1.7236184E0,9.708491E-1,-9.6208024E-1,-5.90659E-1,-8.730342E-2,1.5496424E0,-4.6590954E-1,1.5727526E-1,5.277771E-1,1.3137168E0,2.6398154E-2,-4.6124423E-1,6.9459224E-1,1.7634948E0,1.9310663E0,8.0991507E-1,8.4435934E-1,1.6506189E0,-1.0700878E-1,-7.585542E-2,-7.288359E-2,-2.661731E-2,-6.596848E-2,1.37889115E-2,9.175091E-3,2.1577375E-1,-7.617294E-2,2.569594E-2,3.9258845E-2,-2.0948587E-2,3.796021E-2,8.104289E-2,1.7698474E-1,9.4215214E-2,-4.1839667E-3,4.8361644E-2,-6.8046674E-2,-2.9642371E-2,1.134532E-1,6.0516007E-2,2.0150857E-1,3.3246115E-2,-3.4027692E-2,1.9845444E-1,-2.9262355E-2,1.3492133E-1,9.9214874E-2,-1.3617061E-1,5.5973995E-2,1.826799E-1],"categories":[],"categories_nodes":[],"categories_segments":[],"categories_sizes":[],"default_left":[0,0,0,0,0,0,0,0,0,0,0,0,0,0,0,0,0,0,0,0,0,0,0,0,0,0,0,0,0,0,0,0,0,0,0,0,0,0,0,0,0,0,0,0,0,0,0,0,0,0,0,0,0,0,0,0,0,0,0,0,0,0,0],"id":2,"left_children":[1,3,5,7,9,11,13,15,17,19,21,23,25,27,29,31,33,35,37,39,41,43,45,47,49,51,53,55,57,59,61,-1,-1,-1,-1,-1,-1,-1,-1,-1,-1,-1,-1,-1,-1,-1,-1,-1,-1,-1,-1,-1,-1,-1,-1,-1,-1,-1,-1,-1,-1,-1,-1],"loss_changes":[6.3836793E4,1.925573E4,1.5631359E4,3.5609453E3,3.2763872E3,2.1674125E4,2.9757148E3,2.4728086E3,1.3797955E3,8.3299304E2,1.1699995E3,1.5708105E3,3.513496E3,1.304248E3,1.9004766E3,1.1734531E3,1.2098174E3,2.91289E2,5.908906E2,6.916344E2,5.500281E2,2.2434766E2,4.947036E2,2.880145E2,8.39417E2,1.3655742E3,1.2141016E3,6.828574E2,7.596756E2,6.0829453E3,6.655283E2,0E0,0E0,0E0,0E0,0E0,0E0,0E0,0E0,0E0,0E0,0E0,0E0,0E0,0E0,0E0,0E0,0E0,0E0,0E0,0E0,0E0,0E0,0E0,0E0,0E0,0E0,0E0,0E0,0E0,0E0,0E0,0E0],"parents":[2147483647,0,0,1,1,2,2,3,3,4,4,5,5,6,6,7,7,8,8,9,9,10,10,11,11,12,12,13,13,14,14,15,15,16,16,17,17,18,18,19,19,20,20,21,21,22,22,23,23,24,24,25,25,26,26,27,27,28,28,29,29,30,30],"right_children":[2,4,6,8,10,12,14,16,18,20,22,24,26,28,30,32,34,36,38,40,42,44,46,48,50,52,54,56,58,60,62,-1,-1,-1,-1,-1,-1,-1,-1,-1,-1,-1,-1,-1,-1,-1,-1,-1,-1,-1,-1,-1,-1,-1,-1,-1,-1,-1,-1,-1,-1,-1,-1],"split_conditions":[-8.161047E-3,1E0,1E0,1.6329699E0,3.22188E-2,1.2554994E-1,-6.886233E-1,-1.2850094E-1,9.9255604E-1,-1.444741E-1,1.0974729E-1,-3.101127E-1,4.605201E0,-9.245138E-2,5.810361E-1,-7.262655E-2,2.8157324E-1,-1.4187203E-1,1.3450865E-1,9.142834E-1,-2.7005896E-1,1.039979E0,-7.5016536E-2,1.2947427E0,1.858115E-2,1.3892104E-1,7.754746E-1,-1.444741E-1,1.9559698E-1,5.718389E-1,-1.2886728E-1,-1.0700878E-1,-7.585542E-2,-7.288359E-2,-2.661731E-2,-6.596848E-2,1.37889115E-2,9.175091E-3,2.1577375E-1,-7.617294E-2,2.569594E-2,3.9258845E-2,-2.0948587E-2,3.796021E-2,8.104289E-2,1.7698474E-1,9.4215214E-2,-4.1839667E-3,4.8361644E-2,-6.8046674E-2,-2.9642371E-2,1.134532E-1,6.0516007E-2,2.0150857E-1,3.3246115E-2,-3.4027692E-2,1.9845444E-1,-2.9262355E-2,1.3492133E-1,9.9214874E-2,-1.3617061E-1,5.5973995E-2,1.826799E-1],"split_indices":[3,11,11,0,7,3,7,3,7,4,5,1,4,4,1,7,7,3,5,0,1,7,3,7,3,3,7,4,0,1,4,0,0,0,0,0,0,0,0,0,0,0,0,0,0,0,0,0,0,0,0,0,0,0,0,0,0,0,0,0,0,0,0],"split_type":[0,0,0,0,0,0,0,0,0,0,0,0,0,0,0,0,0,0,0,0,0,0,0,0,0,0,0,0,0,0,0,0,0,0,0,0,0,0,0,0,0,0,0,0,0,0,0,0,0,0,0,0,0,0,0,0,0,0,0,0,0,0,0],"sum_hessian":[2.0081681E5,1.01236586E5,9.958022E4,8.333816E4,1.7898428E4,7.056979E4,2.9010428E4,8.04144E4,2.923758E3,9.603222E3,8.295207E3,3.246731E4,3.810248E4,6.88961E3,2.2120818E4,5.3425953E4,2.6988447E4,2.2577654E3,6.659928E2,3.2322188E3,6.3710024E3,5.3658535E3,2.9293535E3,9.228294E3,2.3239016E4,3.4728793E4,3.3736868E3,5.613821E3,1.2757892E3,1.8652416E4,3.468402E3,3.490027E4,1.8525686E4,1.8927107E4,8.0613403E3,6.3705365E2,1.6207117E3,1.9641306E2,4.695797E2,2.2936658E3,9.3855286E2,3.8810996E3,2.489903E3,3.5221355E3,1.8437181E3,1.3132196E3,1.6161338E3,8.030471E3,1.1978228E3,9.971933E3,1.3267083E4,5.8649233E3,2.8863871E4,2.868837E3,5.0484973E2,1.2896909E2,5.4848516E3,4.1915097E2,8.566383E2,1.7481861E4,1.1705542E3,4.8292892E2,2.9854731E3],"tree_param":{"num_deleted":"0","num_feature":"13","num_nodes":"63","size_leaf_vector":"1"}},{"base_weights":[-3.306303E-2,-5.5420136E-1,4.7610554E-1,-7.4786586E-1,3.0919763E-1,2.515755E-1,1.0131401E0,-9.0448624E-1,-4.8091602E-1,1.3754435E-1,9.036476E-1,-2.921038E-1,6.996819E-1,1.4301565E0,8.436661E-1,-1.0072925E0,-6.6662705E-1,-5.45811E-1,5.566537E-1,-5.6704428E-2,5.0649714E-1,-9.195863E-2,1.1873417E0,6.775532E-2,-4.1212386E-1,6.149507E-1,1.5635442E0,8.2526773E-1,1.6852862E0,7.2118443E-1,1.5072196E0,-1.06281936E-1,-6.88949E-2,-7.928568E-2,-4.122568E-2,-5.63613E-2,1.2643442E-1,-1.5162433E-3,1.5983167E-1,-4.6852008E-2,1.6884876E-2,4.2652346E-2,1.1100512E-1,3.0702507E-2,-1.0473454E-1,7.207664E-2,1.7432271E-1,-2.0444022E-2,1.7276373E-2,-7.812702E-2,-2.829709E-2,2.201139E-2,7.203429E-2,1.9681834E-1,8.054823E-2,2.2708519E-1,7.2428785E-2,8.997926E-2,1.8514445E-1,8.486004E-2,-3.0588305E-2,7.4271E-2,2.0223068E-1],"categories":[],"categories_nodes":[],"categories_segments":[],"categories_sizes":[],"default_left":[0,0,0,0,0,0,0,0,0,0,0,0,0,0,0,0,0,0,0,0,0,0,0,0,0,0,0,0,0,0,0,0,0,0,0,0,0,0,0,0,0,0,0,0,0,0,0,0,0,0,0,0,0,0,0,0,0,0,0,0,0,0,0],"id":3,"left_children":[1,3,5,7,9,11,13,15,17,19,21,23,25,27,29,31,33,35,37,39,41,43,45,47,49,51,53,55,57,59,61,-1,-1,-1,-1,-1,-1,-1,-1,-1,-1,-1,-1,-1,-1,-1,-1,-1,-1,-1,-1,-1,-1,-1,-1,-1,-1,-1,-1,-1,-1,-1,-1],"loss_changes":[5.2731637E4,1.642179E4,1.2120086E4,3.3532656E3,1.8358148E3,1.7269398E4,2.0929668E3,1.2353867E3,1.9976357E3,1.0007954E3,1.1388542E3,1.3833259E3,2.8430469E3,1.3196543E3,1.7114521E3,6.23E2,4.8952197E2,9.002832E2,1.0404681E3,8.4983185E2,2.3184277E2,3.414877E2,8.122451E2,2.2900334E2,1.1447329E3,1.4723604E3,1.0625684E3,3.6912134E2,7.83875E2,2.328708E3,1.2909414E3,0E0,0E0,0E0,0E0,0E0,0E0,0E0,0E0,0E0,0E0,0E0,0E0,0E0,0E0,0E0,0E0,0E0,0E0,0E0,0E0,0E0,0E0,0E0,0E0,0E0,0E0,0E0,0E0,0E0,0E0,0E0,0E0],"parents":[2147483647,0,0,1,1,2,2,3,3,4,4,5,5,6,6,7,7,8,8,9,9,10,10,11,11,12,12,13,13,14,14,15,15,16,16,17,17,18,18,19,19,20,20,21,21,22,22,23,23,24,24,25,25,26,26,27,27,28,28,29,29,30,30],"right_children":[2,4,6,8,10,12,14,16,18,20,22,24,26,28,30,32,34,36,38,40,42,44,46,48,50,52,54,56,58,60,62,-1,-1,-1,-1,-1,-1,-1,-1,-1,-1,-1,-1,-1,-1,-1,-1,-1,-1,-1,-1,-1,-1,-1,-1,-1,-1,-1,-1,-1,-1,-1,-1],"split_conditions":[-8.161047E-3,1E0,1E0,1.9559698E-1,1E0,1.2554994E-1,-6.936076E-1,-1.2850094E-1,1.8126415E0,-6.680556E-2,-4.3265443E-2,-4.240878E-1,4.605201E0,-1.0157092E0,8.365127E-1,7.0091534E-1,5.810361E-1,3.744741E-1,9.158121E-2,-1.444741E-1,1.09831296E-1,7.2929686E-1,4.994228E-1,-8.5936797E-1,1E0,1E0,-2.2872107E-1,-2.23108E-1,-7.2216994E-1,5.718389E-1,1E0,-1.06281936E-1,-6.88949E-2,-7.928568E-2,-4.122568E-2,-5.63613E-2,1.2643442E-1,-1.5162433E-3,1.5983167E-1,-4.6852008E-2,1.6884876E-2,4.2652346E-2,1.1100512E-1,3.0702507E-2,-1.0473454E-1,7.207664E-2,1.7432271E-1,-2.0444022E-2,1.7276373E-2,-7.812702E-2,-2.829709E-2,2.201139E-2,7.203429E-2,1.9681834E-1,8.054823E-2,2.2708519E-1,7.2428785E-2,8.997926E-2,1.8514445E-1,8.486004E-2,-3.0588305E-2,7.4271E-2,2.0223068E-1],"split_indices":[3,11,11,0,12,3,2,3,0,2,8,1,4,2,1,2,1,8,8,4,8,1,2,2,12,12,2,8,1,1,12,0,0,0,0,0,0,0,0,0,0,0,0,0,0,0,0,0,0,0,0,0,0,0,0,0,0,0,0,0,0,0,0],"split_type":[0,0,0,0,0,0,0,0,0,0,0,0,0,0,0,0,0,0,0,0,0,0,0,0,0,0,0,0,0,0,0,0,0,0,0,0,0,0,0,0,0,0,0,0,0,0,0,0,0,0,0,0,0,0,0,0,0,0,0,0,0,0,0],"sum_hessian":[1.9872486E5,9.8208125E4,1.00516734E5,8.021563E4,1.7992494E4,7.088282E4,2.9633914E4,5.0553152E4,2.9662479E4,1.3962177E4,4.0303167E3,3.2026174E4,3.885665E4,8.560782E3,2.107313E4,3.5294633E4,1.525852E4,2.7916977E4,1.7455015E3,9.146984E3,4.815192E3,8.9382336E2,3.1364932E3,8.009799E3,2.4016375E4,3.5387523E4,3.4691257E3,2.5409812E3,6.0198013E3,1.779136E4,3.281771E3,3.0050447E4,5.2441836E3,1.0196203E4,5.062317E3,2.7645836E4,2.7113998E2,1.1274708E3,6.180305E2,3.2367263E3,5.9102583E3,4.2534614E3,5.617308E2,6.30917E2,2.6290634E2,1.7065767E3,1.4299165E3,2.2292893E3,5.7805093E3,6.223235E3,1.779314E4,7.4565776E3,2.7930947E4,2.2606858E3,1.2084401E3,1.6444073E2,2.3765405E3,1.0522819E3,4.967519E3,1.5828036E4,1.9633242E3,1.3221008E3,1.95967E3],"tree_param":{"num_deleted":"0","num_feature":"13","num_nodes":"63","size_leaf_vector":"1"}},{"base_weights":[-3.0739954E-2,-5.1425254E-1,4.2575955E-1,-6.991288E-1,2.7632898E-1,2.256563E-1,9.032394E-1,-8.523532E-1,-4.4261807E-1,-5.1874526E-2,6.4983046E-1,-2.6552016E-1,6.191351E-1,1.370384E0,7.6161367E-1,-9.530784E-1,-6.2395227E-1,-5.365708E-1,3.4327614E-1,5.5527274E-2,-6.4619297E-1,4.5026958E-1,1.1178713E0,2.6465017E-2,-3.860038E-1,4.9123627E-1,1.1288588E0,1.4818712E0,-6.687924E-3,6.3936716E-1,1.2713553E0,-9.7087614E-2,4.7960643E-2,-2.6941055E-2,-7.207433E-2,-7.9053335E-2,-4.283745E-2,8.112894E-3,1.4835273E-1,-4.473969E-3,6.88953E-2,-1.1261087E-1,-2.316126E-2,3.7522122E-2,1.1521461E-1,1.5736149E-1,2.0508438E-2,-9.890889E-2,5.0830888E-3,-7.729364E-2,-2.5121516E-2,6.1119E-2,-1.0357118E-2,1.6891007E-1,7.606796E-2,4.5098852E-2,1.565264E-1,-7.051195E-2,2.1943076E-1,5.2476514E-2,1.2538807E-1,1.8938257E-1,1.1061492E-1],"categories":[],"categories_nodes":[],"categories_segments":[],"categories_sizes":[],"default_left":[0,0,0,0,0,0,0,0,0,0,0,0,0,0,0,0,0,0,0,0,0,0,0,0,0,0,0,0,0,0,0,0,0,0,0,0,0,0,0,0,0,0,0,0,0,0,0,0,0,0,0,0,0,0,0,0,0,0,0,0,0,0,0],"id":4,"left_children":[1,3,5,7,9,11,13,15,17,19,21,23,25,27,29,31,33,35,37,39,41,43,45,47,49,51,53,55,57,59,61,-1,-1,-1,-1,-1,-1,-1,-1,-1,-1,-1,-1,-1,-1,-1,-1,-1,-1,-1,-1,-1,-1,-1,-1,-1,-1,-1,-1,-1,-1,-1,-1],"loss_changes":[4.3357074E4,1.3942939E4,9.653412E3,3.0382266E3,2.2164624E3,1.3761079E4,1.9728184E3,1.1127383E3,2.1351782E3,6.144372E2,7.892278E2,1.114165E3,2.5765342E3,1.0656553E3,1.425919E3,8.5690234E2,5.081255E2,7.092256E2,9.227979E2,5.1785693E2,2.9273755E2,3.1181287E2,1.0507659E3,2.2888344E2,1.1689514E3,2.2550977E3,1.6339375E3,5.5104785E2,8.018736E2,1.3000225E3,4.5298193E2,0E0,0E0,0E0,0E0,0E0,0E0,0E0,0E0,0E0,0E0,0E0,0E0,0E0,0E0,0E0,0E0,0E0,0E0,0E0,0E0,0E0,0E0,0E0,0E0,0E0,0E0,0E0,0E0,0E0,0E0,0E0,0E0],"parents":[2147483647,0,0,1,1,2,2,3,3,4,4,5,5,6,6,7,7,8,8,9,9,10,10,11,11,12,12,13,13,14,14,15,15,16,16,17,17,18,18,19,19,20,20,21,21,22,22,23,23,24,24,25,25,26,26,27,27,28,28,29,29,30,30],"right_children":[2,4,6,8,10,12,14,16,18,20,22,24,26,28,30,32,34,36,38,40,42,44,46,48,50,52,54,56,58,60,62,-1,-1,-1,-1,-1,-1,-1,-1,-1,-1,-1,-1,-1,-1,-1,-1,-1,-1,-1,-1,-1,-1,-1,-1,-1,-1,-1,-1,-1,-1,-1,-1],"split_conditions":[-8.161047E-3,1E0,1E0,1.9559698E-1,4.2975683E-2,1.2554994E-1,-6.886233E-1,-1.2850094E-1,9.6898824E-1,4.7080067E-1,1E0,-3.101127E-1,3.929719E-1,-6.1237745E-2,2.5926092E-1,2.2020614E0,1E0,-1.4187203E-1,1.8126415E0,1E0,1.5925363E-2,1.3450865E-1,7.346118E-1,-1.314027E0,1E0,3.261164E-1,1E0,-1.6374625E-1,1.6796345E-2,5.810361E-1,-1.4148142E0,-9.7087614E-2,4.7960643E-2,-2.6941055E-2,-7.207433E-2,-7.9053335E-2,-4.283745E-2,8.112894E-3,1.4835273E-1,-4.473969E-3,6.88953E-2,-1.1261087E-1,-2.316126E-2,3.7522122E-2,1.1521461E-1,1.5736149E-1,2.0508438E-2,-9.890889E-2,5.0830888E-3,-7.729364E-2,-2.5121516E-2,6.1119E-2,-1.0357118E-2,1.6891007E-1,7.606796E-2,4.5098852E-2,1.565264E-1,-7.051195E-2,2.1943076E-1,5.2476514E-2,1.2538807E-1,1.8938257E-1,1.1061492E-1],"split_indices":[3,11,11,0,7,3,7,3,7,1,12,1,3,4,3,7,10,3,0,12,0,5,0,7,12,3,12,0,4,1,8,0,0,0,0,0,0,0,0,0,0,0,0,0,0,0,0,0,0,0,0,0,0,0,0,0,0,0,0,0,0,0,0],"split_type":[0,0,0,0,0,0,0,0,0,0,0,0,0,0,0,0,0,0,0,0,0,0,0,0,0,0,0,0,0,0,0,0,0,0,0,0,0,0,0,0,0,0,0,0,0,0,0,0,0,0,0,0,0,0,0,0,0,0,0,0,0,0,0],"sum_hessian":[1.9642981E5,9.5392555E4,1.0103725E5,7.731322E4,1.8079338E4,7.12002E4,2.9837049E4,4.8399496E4,2.891372E4,9.623533E3,8.455806E3,3.1668604E4,3.95316E4,6.9391787E3,2.2897871E4,3.35849E4,1.48146E4,2.5826621E4,3.0870984E3,8.1512285E3,1.4723047E3,5.929704E3,2.5261016E3,9.2505E3,2.2418104E4,3.16038E4,7.9277983E3,6.419458E3,5.1972076E2,1.8470676E4,4.427195E3,3.317319E4,4.1170523E2,3.1781145E3,1.1636485E4,7.713642E3,1.811298E4,2.510976E3,5.761223E2,7.037942E3,1.1132865E3,6.814754E2,7.908292E2,5.358429E3,5.712747E2,1.6843113E3,8.4179016E2,2.1572023E2,9.034779E3,5.790386E3,1.6627719E4,2.6300057E4,5.303745E3,3.1423555E3,4.785443E3,4.810041E2,5.938454E3,3.9507773E2,1.24643074E2,1.5569163E4,2.9015122E3,9.262315E2,3.5009634E3],"tree_param":{"num_deleted":"0","num_feature":"13","num_nodes":"63","size_leaf_vector":"1"}},{"base_weights":[-3.0974193E-2,-4.2938972E-1,4.3694395E-1,-6.310867E-1,3.1287077E-1,6.529349E-1,1.3220985E-1,-7.992938E-1,-3.9516193E-1,1.2721789E-1,9.354162E-1,5.488036E-1,1.3322568E0,-1.8340288E-1,4.308857E-1,-9.1622853E-1,-5.7136047E-1,-4.80427E-1,2.6084322E-1,-2.1365994E-1,4.6031526E-1,4.113342E-1,1.3525374E0,3.0075186E-1,7.816791E-1,1.704126E0,1.1269481E0,-3.527333E-1,1.5054817E-1,7.299244E-1,1.858176E-1,-9.340934E-2,3.9481204E-2,-5.9175797E-2,1.6196212E-1,-6.1196595E-2,-3.4489807E-2,7.4741445E-3,1.4757365E-1,-1.0853324E-2,-1.1887826E-1,2.098207E-2,6.1646253E-2,8.543326E-3,8.15113E-2,1.541134E-1,-4.198539E-2,-1.5571872E-2,6.258142E-2,1.2885524E-1,6.0916513E-2,1.1574941E-1,1.791273E-1,-4.5305133E-2,1.1981368E-1,-6.815417E-2,-1.2124615E-2,1.140631E-3,5.5577207E-2,1.5292192E-3,9.655469E-2,3.4156095E-2,-3.1365924E-2],"categories":[],"categories_nodes":[],"categories_segments":[],"categories_sizes":[],"default_left":[0,0,0,0,0,0,0,0,0,0,0,0,0,0,0,0,0,0,0,0,0,0,0,0,0,0,0,0,0,0,0,0,0,0,0,0,0,0,0,0,0,0,0,0,0,0,0,0,0,0,0,0,0,0,0,0,0,0,0,0,0,0,0],"id":5,"left_children":[1,3,5,7,9,11,13,15,17,19,21,23,25,27,29,31,33,35,37,39,41,43,45,47,49,51,53,55,57,59,61,-1,-1,-1,-1,-1,-1,-1,-1,-1,-1,-1,-1,-1,-1,-1,-1,-1,-1,-1,-1,-1,-1,-1,-1,-1,-1,-1,-1,-1,-1,-1,-1],"loss_changes":[3.6083445E4,1.5651242E4,5.8586426E3,3.2617695E3,2.5815444E3,3.683916E3,3.4806807E3,1.2783672E3,1.9140552E3,1.9540133E3,1.1209404E3,2.6088574E3,5.2633203E2,1.01528156E3,1.3900569E3,7.4323047E2,7.281621E2,5.3953564E2,8.897191E2,8.71622E2,3.4022815E2,2.9927844E2,9.556006E2,3.2457944E3,2.036127E3,1.14836914E2,5.0264795E2,9.066068E2,3.4054138E2,1.4385679E3,8.112967E2,0E0,0E0,0E0,0E0,0E0,0E0,0E0,0E0,0E0,0E0,0E0,0E0,0E0,0E0,0E0,0E0,0E0,0E0,0E0,0E0,0E0,0E0,0E0,0E0,0E0,0E0,0E0,0E0,0E0,0E0,0E0,0E0],"parents":[2147483647,0,0,1,1,2,2,3,3,4,4,5,5,6,6,7,7,8,8,9,9,10,10,11,11,12,12,13,13,14,14,15,15,16,16,17,17,18,18,19,19,20,20,21,21,22,22,23,23,24,24,25,25,26,26,27,27,28,28,29,29,30,30],"right_children":[2,4,6,8,10,12,14,16,18,20,22,24,26,28,30,32,34,36,38,40,42,44,46,48,50,52,54,56,58,60,62,-1,-1,-1,-1,-1,-1,-1,-1,-1,-1,-1,-1,-1,-1,-1,-1,-1,-1,-1,-1,-1,-1,-1,-1,-1,-1,-1,-1,-1,-1,-1,-1],"split_conditions":[-1.1903005E-1,1E0,1E0,-1.2850094E-1,1E0,3.929719E-1,-9.245138E-2,1.9559698E-1,9.9255604E-1,-1.3580489E-1,1.14699565E-1,1E0,-5.769966E-1,5.549402E-1,1.4912845E-1,2.2020614E0,1.7907912E-1,1.9559698E-1,1.8126415E0,-1.7229891E-1,-1.15129836E-1,4.466454E-1,1.1517105E0,1.2554994E-1,-6.886233E-1,-4.0428653E-2,-1.2417759E0,1.3450865E-1,3.0594215E-1,1.2554994E-1,5.9227264E-1,-9.340934E-2,3.9481204E-2,-5.9175797E-2,1.6196212E-1,-6.1196595E-2,-3.4489807E-2,7.4741445E-3,1.4757365E-1,-1.0853324E-2,-1.1887826E-1,2.098207E-2,6.1646253E-2,8.543326E-3,8.15113E-2,1.541134E-1,-4.198539E-2,-1.5571872E-2,6.258142E-2,1.2885524E-1,6.0916513E-2,1.1574941E-1,1.791273E-1,-4.5305133E-2,1.1981368E-1,-6.815417E-2,-1.2124615E-2,1.140631E-3,5.5577207E-2,1.5292192E-3,9.655469E-2,3.4156095E-2,-3.1365924E-2],"split_indices":[6,11,10,3,12,3,4,0,7,7,5,11,7,0,1,7,5,0,0,7,3,7,1,3,7,4,0,5,7,3,7,0,0,0,0,0,0,0,0,0,0,0,0,0,0,0,0,0,0,0,0,0,0,0,0,0,0,0,0,0,0,0,0],"split_type":[0,0,0,0,0,0,0,0,0,0,0,0,0,0,0,0,0,0,0,0,0,0,0,0,0,0,0,0,0,0,0,0,0,0,0,0,0,0,0,0,0,0,0,0,0,0,0,0,0,0,0,0,0,0,0,0,0,0,0,0,0,0,0],"sum_hessian":[1.9355186E5,1.0454005E5,8.901181E4,8.220302E4,2.2337023E4,5.208984E4,3.692197E4,4.7986973E4,3.421605E4,1.7206992E4,5.1300312E3,4.516811E4,6.92173E3,1.795201E4,1.8969957E4,3.1713707E4,1.6273267E4,3.02807E4,3.9353508E3,8.504205E3,8.702787E3,2.2745066E3,2.8555247E3,2.1872701E4,2.329541E4,2.459368E3,4.4623623E3,1.1912169E4,6.039842E3,8.543077E3,1.042688E4,3.128773E4,4.2597723E2,1.6123932E4,1.4933434E2,1.5364389E4,1.491631E4,3.4135889E3,5.2176215E2,7.6776963E3,8.2650867E2,3.3429482E3,5.3598394E3,1.2594385E3,1.0150682E3,2.5810657E3,2.7445914E2,9.097583E3,1.2775118E4,5.9135156E3,1.7381895E4,3.402939E2,2.119074E3,1.9209686E2,4.2702656E3,4.9205537E3,6.991615E3,4.4969854E3,1.5428563E3,2.118687E3,6.4243906E3,7.9488438E3,2.4780361E3],"tree_param":{"num_deleted":"0","num_feature":"13","num_nodes":"63","size_leaf_vector":"1"}},{"base_weights":[-2.851274E-2,-3.9855325E-1,3.928645E-1,-2.20317E-2,-6.8521506E-1,5.8667827E-1,1.1850022E-1,-2.943979E-1,1.6374944E-1,-8.1907976E-1,-3.8850027E-1,1.3589472E0,5.2410364E-1,-1.6302812E-1,3.7993985E-1,-3.9519066E-1,1.8943392E-1,-1.7974213E-1,4.493477E-1,-8.708336E-1,7.563094E-2,-6.981373E-1,-2.1714541E-1,-1.3678776E0,1.4051704E0,4.325806E-1,1.1059419E0,-5.003422E-1,9.099611E-3,6.04528E-1,1.285829E-1,-6.910868E-2,-2.8234486E-2,-1.3554724E-3,4.0013485E-2,1.4619519E-2,-8.99665E-2,1.463844E-1,4.0340565E-2,-9.6545406E-2,-7.4943125E-2,-8.956923E-2,4.3714337E-2,-7.806073E-2,5.784798E-3,9.022901E-2,-2.6310239E-2,-1.8747875E-1,1.0491216E-1,1.00412466E-1,1.541007E-1,6.8893515E-2,1.6961947E-2,6.260494E-2,1.8977068E-1,-6.287699E-2,1.4774206E-2,8.92195E-2,-2.9511347E-3,-3.8602338E-3,7.511415E-2,2.7550418E-2,-3.2454662E-2],"categories":[],"categories_nodes":[],"categories_segments":[],"categories_sizes":[],"default_left":[0,0,0,0,0,0,0,0,0,0,0,0,0,0,0,0,0,0,0,0,0,0,0,0,0,0,0,0,0,0,0,0,0,0,0,0,0,0,0,0,0,0,0,0,0,0,0,0,0,0,0,0,0,0,0,0,0,0,0,0,0,0,0],"id":6,"left_children":[1,3,5,7,9,11,13,15,17,19,21,23,25,27,29,31,33,35,37,39,41,43,45,47,49,51,53,55,57,59,61,-1,-1,-1,-1,-1,-1,-1,-1,-1,-1,-1,-1,-1,-1,-1,-1,-1,-1,-1,-1,-1,-1,-1,-1,-1,-1,-1,-1,-1,-1,-1,-1],"loss_changes":[2.9790451E4,1.0979402E4,4.7500586E3,2.2250364E3,2.2935059E3,2.5288613E3,2.7220583E3,8.696653E2,2.5645742E3,1.8429336E3,9.5253296E2,4.9639648E2,2.578206E3,1.0339707E3,1.0823472E3,4.9246973E2,1.3154916E2,2.7851006E3,6.6450073E2,4.3126172E2,7.647759E2,3.9892603E2,5.9497144E2,8.274467E1,2.083789E2,2.8207568E3,2.4992607E3,5.0093835E2,4.0216937E2,9.5495215E2,6.025851E2,0E0,0E0,0E0,0E0,0E0,0E0,0E0,0E0,0E0,0E0,0E0,0E0,0E0,0E0,0E0,0E0,0E0,0E0,0E0,0E0,0E0,0E0,0E0,0E0,0E0,0E0,0E0,0E0,0E0,0E0,0E0,0E0],"parents":[2147483647,0,0,1,1,2,2,3,3,4,4,5,5,6,6,7,7,8,8,9,9,10,10,11,11,12,12,13,13,14,14,15,15,16,16,17,17,18,18,19,19,20,20,21,21,22,22,23,23,24,24,25,25,26,26,27,27,28,28,29,29,30,30],"right_children":[2,4,6,8,10,12,14,16,18,20,22,24,26,28,30,32,34,36,38,40,42,44,46,48,50,52,54,56,58,60,62,-1,-1,-1,-1,-1,-1,-1,-1,-1,-1,-1,-1,-1,-1,-1,-1,-1,-1,-1,-1,-1,-1,-1,-1,-1,-1,-1,-1,-1,-1,-1,-1],"split_conditions":[-1.1903005E-1,1E0,1E0,8.99382E-2,3.4176672E-1,-1.3765532E0,-9.245138E-2,1.1115298E0,-1.5196821E-1,1.2512373E0,-1.6699241E-1,-1.1375763E0,2.2350101E-1,2.3688927E-2,2.9264063E-1,-1.444741E-1,1.5126212E0,-3.1217402E-1,-2.2250819E-1,8.99382E-2,-1.444741E-1,1.7171853E0,-1.7030765E0,4.5535135E0,-4.273014E0,-1.4493988E-1,5.718389E-1,9.150218E-1,-1.7030765E0,-6.601902E-2,5.9227264E-1,-6.910868E-2,-2.8234486E-2,-1.3554724E-3,4.0013485E-2,1.4619519E-2,-8.99665E-2,1.463844E-1,4.0340565E-2,-9.6545406E-2,-7.4943125E-2,-8.956923E-2,4.3714337E-2,-7.806073E-2,5.784798E-3,9.022901E-2,-2.6310239E-2,-1.8747875E-1,1.0491216E-1,1.00412466E-1,1.541007E-1,6.8893515E-2,1.6961947E-2,6.260494E-2,1.8977068E-1,-6.287699E-2,1.4774206E-2,8.92195E-2,-2.9511347E-3,-3.8602338E-3,7.511415E-2,2.7550418E-2,-3.2454662E-2],"split_indices":[6,10,10,5,9,8,4,9,7,2,6,7,8,8,1,4,9,2,4,5,4,9,1,6,5,1,1,9,1,6,7,0,0,0,0,0,0,0,0,0,0,0,0,0,0,0,0,0,0,0,0,0,0,0,0,0,0,0,0,0,0,0,0],"split_type":[0,0,0,0,0,0,0,0,0,0,0,0,0,0,0,0,0,0,0,0,0,0,0,0,0,0,0,0,0,0,0,0,0,0,0,0,0,0,0,0,0,0,0,0,0,0,0,0,0,0,0,0,0,0,0,0,0,0,0,0,0,0,0],"sum_hessian":[1.9105225E5,1.0172276E5,8.93295E4,4.3970402E4,5.7752355E4,5.234849E4,3.698101E4,1.7830209E4,2.6140193E4,3.979603E4,1.795632E4,3.9220403E3,4.8426445E4,1.7806393E4,1.9174621E4,1.4756497E4,3.0737117E3,1.1867303E4,1.4272891E4,3.762007E4,2.1759622E3,6.3956924E3,1.1560629E4,6.486285E1,3.8571775E3,4.1845996E4,6.5804517E3,6.0158896E3,1.1790503E4,1.0125581E4,9.04904E3,4.0723262E3,1.0684171E4,1.5657418E3,1.50797E3,8.169367E3,3.697935E3,6.169223E2,1.3655968E4,2.1137674E4,1.6482396E4,5.897225E2,1.5862396E3,5.7667056E3,6.2898694E2,4.5506992E2,1.1105559E4,5.38374E1,1.1025446E1,9.78214E2,2.8789636E3,2.118816E4,2.0657834E4,4.0983438E3,2.4821084E3,5.0210728E3,9.94817E2,4.930952E2,1.1297408E4,1.8797932E3,8.245788E3,6.8338623E3,2.2151772E3],"tree_param":{"num_deleted":"0","num_feature":"13","num_nodes":"63","size_leaf_vector":"1"}},{"base_weights":[-2.6483996E-2,-3.673913E-1,3.527714E-1,-5.549987E-1,2.7948913E-1,2.112051E-1,6.9964623E-1,-6.978731E-1,-3.2500875E-1,1.14411354E-1,8.3394223E-1,-3.9268553E-2,4.3362457E-1,1.144163E0,5.626184E-1,-8.0960935E-1,-4.8214436E-1,-3.8617706E-1,4.1109315E-1,-1.220395E-1,4.5179495E-1,3.3178556E-1,1.187848E0,-1.8674996E-1,5.3908634E-1,5.903134E-1,-2.2808257E-1,1.3742076E0,2.61621E-1,4.4825533E-1,1.1128002E0,-9.022094E-2,-5.9265055E-2,-5.4016482E-2,2.750071E-2,-5.312804E-2,-2.0245424E-2,-8.549147E-3,1.03913724E-1,1.650933E-2,-3.2481156E-2,1.0107875E-1,3.9734643E-2,-2.5542924E-2,5.9134133E-2,1.3459446E-1,-5.839007E-2,-2.7518257E-2,3.0885532E-2,2.6676068E-2,1.48162E-1,5.105248E-2,1.21042006E-1,-1.0466739E-1,1.9150978E-2,5.7355445E-2,1.4693479E-1,-5.6128807E-2,9.340658E-2,5.859049E-2,-1.3883266E-1,5.772409E-2,1.5238568E-1],"categories":[],"categories_nodes":[],"categories_segments":[],"categories_sizes":[],"default_left":[0,0,0,0,0,0,0,0,0,0,0,0,0,0,0,0,0,0,0,0,0,0,0,0,0,0,0,0,0,0,0,0,0,0,0,0,0,0,0,0,0,0,0,0,0,0,0,0,0,0,0,0,0,0,0,0,0,0,0,0,0,0,0],"id":7,"left_children":[1,3,5,7,9,11,13,15,17,19,21,23,25,27,29,31,33,35,37,39,41,43,45,47,49,51,53,55,57,59,61,-1,-1,-1,-1,-1,-1,-1,-1,-1,-1,-1,-1,-1,-1,-1,-1,-1,-1,-1,-1,-1,-1,-1,-1,-1,-1,-1,-1,-1,-1,-1,-1],"loss_changes":[2.4397154E4,1.2060166E4,4.386169E3,2.5309648E3,2.0446843E3,3.5341902E3,1.5761094E3,1.1448066E3,1.3293208E3,1.3735804E3,9.103186E2,2.5451367E3,3.483982E3,1.2377178E3,1.2445972E3,6.2814453E2,7.1252686E2,7.2642285E2,7.0664404E2,5.8947754E2,2.1539673E2,3.2336526E2,8.428633E2,1.0421313E3,1.5556138E3,1.3434199E3,2.2101243E3,3.6745312E2,6.991166E2,4.143407E3,7.485122E2,0E0,0E0,0E0,0E0,0E0,0E0,0E0,0E0,0E0,0E0,0E0,0E0,0E0,0E0,0E0,0E0,0E0,0E0,0E0,0E0,0E0,0E0,0E0,0E0,0E0,0E0,0E0,0E0,0E0,0E0,0E0,0E0],"parents":[2147483647,0,0,1,1,2,2,3,3,4,4,5,5,6,6,7,7,8,8,9,9,10,10,11,11,12,12,13,13,14,14,15,15,16,16,17,17,18,18,19,19,20,20,21,21,22,22,23,23,24,24,25,25,26,26,27,27,28,28,29,29,30,30],"right_children":[2,4,6,8,10,12,14,16,18,20,22,24,26,28,30,32,34,36,38,40,42,44,46,48,50,52,54,56,58,60,62,-1,-1,-1,-1,-1,-1,-1,-1,-1,-1,-1,-1,-1,-1,-1,-1,-1,-1,-1,-1,-1,-1,-1,-1,-1,-1,-1,-1,-1,-1,-1,-1],"split_conditions":[-1.1903005E-1,1E0,1E0,-3.4963787E-2,1E0,-6.601902E-2,-6.886233E-1,3.7526858E-1,1.4532982E0,1.1703121E-1,2.8671578E-2,1.7416582E-1,1.010198E0,-7.106769E-2,5.810361E-1,-1.6446808E-1,1.5927002E-1,9.4890475E-2,8.401847E-2,-5.719705E-1,-1.9176227E0,-4.3265443E-2,1.1517105E0,1.093955E0,1.2388024E0,4.5282702E0,1E0,-7.2216994E-1,5.549402E-1,5.718389E-1,1E0,-9.022094E-2,-5.9265055E-2,-5.4016482E-2,2.750071E-2,-5.312804E-2,-2.0245424E-2,-8.549147E-3,1.03913724E-1,1.650933E-2,-3.2481156E-2,1.0107875E-1,3.9734643E-2,-2.5542924E-2,5.9134133E-2,1.3459446E-1,-5.839007E-2,-2.7518257E-2,3.0885532E-2,2.6676068E-2,1.48162E-1,5.105248E-2,1.21042006E-1,-1.0466739E-1,1.9150978E-2,5.7355445E-2,1.4693479E-1,-5.6128807E-2,9.340658E-2,5.859049E-2,-1.3883266E-1,5.772409E-2,1.5238568E-1],"split_indices":[6,11,11,7,12,6,7,0,0,7,8,8,1,6,1,6,5,5,8,1,1,8,1,0,1,6,12,1,0,1,12,0,0,0,0,0,0,0,0,0,0,0,0,0,0,0,0,0,0,0,0,0,0,0,0,0,0,0,0,0,0,0,0],"split_type":[0,0,0,0,0,0,0,0,0,0,0,0,0,0,0,0,0,0,0,0,0,0,0,0,0,0,0,0,0,0,0,0,0,0,0,0,0,0,0,0,0,0,0,0,0,0,0,0,0,0,0,0,0,0,0,0,0,0,0,0,0,0,0],"sum_hessian":[1.8869767E5,9.937299E4,8.932468E4,7.703244E4,2.2340549E4,6.3436797E4,2.5887879E4,4.7513574E4,2.9518867E4,1.7216156E4,5.1243936E3,2.9836896E4,3.3599902E4,6.0979897E3,1.9789889E4,3.1299068E4,1.6214504E4,2.725468E4,2.2641873E3,1.0122369E4,7.093787E3,2.1193992E3,3.0049941E3,2.3775066E4,6.0618296E3,2.7167127E4,6.4327744E3,4.8366035E3,1.261386E3,1.6385854E4,3.404035E3,2.1933867E4,9.365202E3,1.5060813E4,1.1536903E3,1.5226462E4,1.2028218E4,1.2648192E3,9.9936804E2,4.1895303E3,5.9328384E3,6.2791675E2,6.4658706E3,6.4953406E2,1.4698651E3,2.7590918E3,2.4590239E2,2.0175693E4,3.5993738E3,4.704073E3,1.357756E3,2.4071812E4,3.0953145E3,2.1794956E3,4.253279E3,5.145428E2,4.322061E3,5.672394E2,6.941466E2,1.5244065E4,1.1417886E3,1.4793109E3,1.924724E3],"tree_param":{"num_deleted":"0","num_feature":"13","num_nodes":"63","size_leaf_vector":"1"}},{"base_weights":[-2.313415E-2,-3.4130645E-1,3.2308877E-1,-5.171184E-1,2.4513878E-1,1.9605342E-1,6.360803E-1,-6.561466E-1,-2.981076E-1,-1.9361658E-2,4.762075E-1,-3.2879777E-2,3.9831614E-1,1.0676365E0,5.065841E-1,-7.649885E-1,-4.5029572E-1,-3.660489E-1,2.4957253E-1,1.2947719E-1,-7.8327435E-1,2.3773877E-1,7.0307684E-1,3.853767E-1,-1.9861493E-1,5.4126364E-1,-2.0832759E-1,1.2847788E0,2.5122505E-1,4.0698192E-1,1.0509442E0,-3.6060445E-2,-8.44049E-2,-5.009073E-2,2.9845236E-2,-5.1079433E-2,-1.8979477E-2,-3.3486856E-3,7.4914105E-2,-4.617085E-2,4.1074052E-2,-4.8780125E-3,-1.08612075E-1,9.2720926E-2,1.7711563E-2,9.1404445E-2,4.3614436E-2,2.0090057E-2,1.265286E-1,-2.8786043E-2,1.434564E-2,3.6829144E-2,8.179491E-2,-6.65208E-2,2.3415633E-2,5.0890554E-2,1.3796297E-1,-4.91794E-2,8.5168E-2,5.213655E-2,-8.517536E-2,1.394061E-1,7.4999556E-2],"categories":[],"categories_nodes":[],"categories_segments":[],"categories_sizes":[],"default_left":[0,0,0,0,0,0,0,0,0,0,0,0,0,0,0,0,0,0,0,0,0,0,0,0,0,0,0,0,0,0,0,0,0,0,0,0,0,0,0,0,0,0,0,0,0,0,0,0,0,0,0,0,0,0,0,0,0,0,0,0,0,0,0],"id":8,"left_children":[1,3,5,7,9,11,13,15,17,19,21,23,25,27,29,31,33,35,37,39,41,43,45,47,49,51,53,55,57,59,61,-1,-1,-1,-1,-1,-1,-1,-1,-1,-1,-1,-1,-1,-1,-1,-1,-1,-1,-1,-1,-1,-1,-1,-1,-1,-1,-1,-1,-1,-1,-1,-1],"loss_changes":[2.0481148E4,9.989606E3,3.539998E3,2.2693809E3,1.3658671E3,2.9327048E3,1.4357822E3,1.0211035E3,1.0772119E3,1.1849857E3,6.450386E2,2.0594778E3,2.9161255E3,1.051082E3,1.0715381E3,9.530586E2,5.978784E2,6.568335E2,4.5190082E2,1.4504829E3,3.778672E2,2.428588E2,3.4364404E2,1.3682175E3,6.4965234E2,1.3020054E3,1.2966803E3,3.439004E2,5.570484E2,2.4072961E3,3.1447046E2,0E0,0E0,0E0,0E0,0E0,0E0,0E0,0E0,0E0,0E0,0E0,0E0,0E0,0E0,0E0,0E0,0E0,0E0,0E0,0E0,0E0,0E0,0E0,0E0,0E0,0E0,0E0,0E0,0E0,0E0,0E0,0E0],"parents":[2147483647,0,0,1,1,2,2,3,3,4,4,5,5,6,6,7,7,8,8,9,9,10,10,11,11,12,12,13,13,14,14,15,15,16,16,17,17,18,18,19,19,20,20,21,21,22,22,23,23,24,24,25,25,26,26,27,27,28,28,29,29,30,30],"right_children":[2,4,6,8,10,12,14,16,18,20,22,24,26,28,30,32,34,36,38,40,42,44,46,48,50,52,54,56,58,60,62,-1,-1,-1,-1,-1,-1,-1,-1,-1,-1,-1,-1,-1,-1,-1,-1,-1,-1,-1,-1,-1,-1,-1,-1,-1,-1,-1,-1,-1,-1,-1,-1],"split_conditions":[-1.1903005E-1,1E0,1E0,-3.4963787E-2,-1.4419723E-1,-6.601902E-2,-6.886233E-1,3.7526858E-1,1.2736267E0,-2.941557E-1,1.0974729E-1,-1.1846274E-1,1.010198E0,-7.106769E-2,6.9562024E-1,1E0,1.642223E-1,-1.6446808E-1,1.3450865E-1,-1.444741E-1,-1.5689507E-1,-1.8710481E0,7.346118E-1,1.4657018E0,9.142834E-1,7.346118E-1,4.158873E-1,-7.2216994E-1,5.549402E-1,5.718389E-1,-1.6374625E-1,-3.6060445E-2,-8.44049E-2,-5.009073E-2,2.9845236E-2,-5.1079433E-2,-1.8979477E-2,-3.3486856E-3,7.4914105E-2,-4.617085E-2,4.1074052E-2,-4.8780125E-3,-1.08612075E-1,9.2720926E-2,1.7711563E-2,9.1404445E-2,4.3614436E-2,2.0090057E-2,1.265286E-1,-2.8786043E-2,1.434564E-2,3.6829144E-2,8.179491E-2,-6.65208E-2,2.3415633E-2,5.0890554E-2,1.3796297E-1,-4.91794E-2,8.5168E-2,5.213655E-2,-8.517536E-2,1.394061E-1,7.4999556E-2],"split_indices":[6,11,11,7,7,6,7,0,0,2,5,4,1,6,1,10,5,6,5,4,6,1,0,2,0,0,2,1,0,1,0,0,0,0,0,0,0,0,0,0,0,0,0,0,0,0,0,0,0,0,0,0,0,0,0,0,0,0,0,0,0,0,0],"split_type":[0,0,0,0,0,0,0,0,0,0,0,0,0,0,0,0,0,0,0,0,0,0,0,0,0,0,0,0,0,0,0,0,0,0,0,0,0,0,0,0,0,0,0,0,0,0,0,0,0,0,0,0,0,0,0,0,0,0,0,0,0,0,0],"sum_hessian":[1.8592227E5,9.6886086E4,8.903618E4,7.4539875E4,2.2346215E4,6.3332906E4,2.5703271E4,4.5594195E4,2.8945678E4,1.041958E4,1.1926634E4,2.970797E4,3.3624934E4,5.930709E3,1.9772562E4,2.9822562E4,1.5771634E4,2.5751629E4,3.1940498E3,8.721085E3,1.698495E3,5.815885E3,6.1107495E3,8.430489E3,2.127748E4,2.7212861E4,6.412074E3,4.684159E3,1.2465496E3,1.6715955E4,3.056607E3,4.878173E3,2.494439E4,1.4773486E4,9.9814813E2,1.4138327E4,1.1613301E4,2.0392997E3,1.1547501E3,2.811214E3,5.909871E3,4.963024E2,1.2021926E3,4.6875577E2,5.347129E3,3.411614E3,2.6991353E3,6.9704517E3,1.4600381E3,1.6875229E4,4.4022515E3,1.6746402E4,1.0466459E4,3.15458E3,3.257494E3,5.1106882E2,4.1730903E3,5.571418E2,6.8940784E2,1.5324093E4,1.3918633E3,1.4263904E3,1.6302164E3],"tree_param":{"num_deleted":"0","num_feature":"13","num_nodes":"63","size_leaf_vector":"1"}},{"base_weights":[-2.3938261E-2,-3.163486E-1,2.8777087E-1,-4.8156255E-1,2.1760036E-1,4.412467E-1,7.2235055E-2,-6.195988E-1,-2.692262E-1,6.908385E-2,7.18837E-1,3.9501792E-1,1.2690835E0,-1.5020105E-1,2.0494528E-1,-7.8957045E-1,-4.8975238E-1,-4.3867382E-1,-6.928729E-2,-1.7480934E-1,2.9864192E-1,3.5960522E-1,1.1314455E0,3.543811E-1,1.2438726E0,1.3922169E0,2.8248698E-1,-2.6790008E-1,1.6687976E-1,4.251826E-1,7.765957E-2,-8.8689536E-2,-5.4561574E-2,-5.163721E-2,1.6859427E-2,-4.8107203E-2,4.6638455E-2,-1.1477514E-2,1.02305256E-1,3.035887E-3,-5.6447275E-2,1.6066907E-2,4.447448E-2,-2.8211612E-2,5.5948734E-2,1.4117597E-1,4.1963574E-2,1.1347567E-3,4.716403E-2,1.3863976E-1,-5.680724E-2,1.4196837E-1,8.908033E-2,1.02110796E-1,-4.827183E-2,-3.6936346E-2,9.272175E-3,-4.250902E-3,4.6872668E-2,-1.3587439E-2,5.4576494E-2,3.4396537E-2,-1.2495498E-3],"categories":[],"categories_nodes":[],"categories_segments":[],"categories_sizes":[],"default_left":[0,0,0,0,0,0,0,0,0,0,0,0,0,0,0,0,0,0,0,0,0,0,0,0,0,0,0,0,0,0,0,0,0,0,0,0,0,0,0,0,0,0,0,0,0,0,0,0,0,0,0,0,0,0,0,0,0,0,0,0,0,0,0],"id":9,"left_children":[1,3,5,7,9,11,13,15,17,19,21,23,25,27,29,31,33,35,37,39,41,43,45,47,49,51,53,55,57,59,61,-1,-1,-1,-1,-1,-1,-1,-1,-1,-1,-1,-1,-1,-1,-1,-1,-1,-1,-1,-1,-1,-1,-1,-1,-1,-1,-1,-1,-1,-1,-1,-1],"loss_changes":[1.6718436E4,8.348987E3,2.9367676E3,2.118211E3,1.6647288E3,1.9838506E3,1.0900936E3,9.6619336E2,9.647063E2,9.660661E2,7.5710815E2,1.693603E3,3.3255273E2,5.1503296E2,6.482845E2,4.4972266E2,4.353506E2,5.9168726E2,6.491914E2,6.689138E2,1.7904846E2,3.5089566E2,4.7380664E2,1.8853384E3,5.802009E2,3.2073242E1,1.7326973E2,3.6830487E2,2.3618349E2,5.7318994E2,3.5198157E2,0E0,0E0,0E0,0E0,0E0,0E0,0E0,0E0,0E0,0E0,0E0,0E0,0E0,0E0,0E0,0E0,0E0,0E0,0E0,0E0,0E0,0E0,0E0,0E0,0E0,0E0,0E0,0E0,0E0,0E0,0E0,0E0],"parents":[2147483647,0,0,1,1,2,2,3,3,4,4,5,5,6,6,7,7,8,8,9,9,10,10,11,11,12,12,13,13,14,14,15,15,16,16,17,17,18,18,19,19,20,20,21,21,22,22,23,23,24,24,25,25,26,26,27,27,28,28,29,29,30,30],"right_children":[2,4,6,8,10,12,14,16,18,20,22,24,26,28,30,32,34,36,38,40,42,44,46,48,50,52,54,56,58,60,62,-1,-1,-1,-1,-1,-1,-1,-1,-1,-1,-1,-1,-1,-1,-1,-1,-1,-1,-1,-1,-1,-1,-1,-1,-1,-1,-1,-1,-1,-1,-1,-1],"split_conditions":[-1.1903005E-1,1E0,1E0,-3.4963787E-2,1E0,4.573708E0,-8.116503E-2,-1.6699241E-1,1.9559698E-1,-1.3580489E-1,6.432867E-2,1.722069E0,4.783228E0,7.346118E-1,-4.0932238E-2,3.7526858E-1,1.7897901E-1,2.0933185E0,1.992313E0,-6.248563E-1,1.0974729E-1,-4.3265443E-2,5.549402E-1,-1.6374625E-1,1.2736267E0,4.6292434E0,1.1053042E0,1.3657711E-1,2.8428143E-1,-6.601902E-2,-6.349469E-2,-8.8689536E-2,-5.4561574E-2,-5.163721E-2,1.6859427E-2,-4.8107203E-2,4.6638455E-2,-1.1477514E-2,1.02305256E-1,3.035887E-3,-5.6447275E-2,1.6066907E-2,4.447448E-2,-2.8211612E-2,5.5948734E-2,1.4117597E-1,4.1963574E-2,1.1347567E-3,4.716403E-2,1.3863976E-1,-5.680724E-2,1.4196837E-1,8.908033E-2,1.02110796E-1,-4.827183E-2,-3.6936346E-2,9.272175E-3,-4.250902E-3,4.6872668E-2,-1.3587439E-2,5.4576494E-2,3.4396537E-2,-1.2495498E-3],"split_indices":[6,11,10,7,12,6,6,6,0,7,8,1,6,0,1,0,8,7,0,2,5,8,0,0,0,6,2,8,1,6,6,0,0,0,0,0,0,0,0,0,0,0,0,0,0,0,0,0,0,0,0,0,0,0,0,0,0,0,0,0,0,0,0],"split_type":[0,0,0,0,0,0,0,0,0,0,0,0,0,0,0,0,0,0,0,0,0,0,0,0,0,0,0,0,0,0,0,0,0,0,0,0,0,0,0,0,0,0,0,0,0,0,0,0,0,0,0,0,0,0,0,0,0,0,0,0,0,0,0],"sum_hessian":[1.8342077E5,9.4640266E4,8.878051E4,7.227675E4,2.2363514E4,5.1854883E4,3.692563E4,4.380044E4,2.8476309E4,1.7252834E4,5.11068E3,4.9113824E4,2.7410579E3,1.3797948E4,2.312768E4,1.896674E4,2.48337E4,1.5412537E4,1.3063772E4,8.365132E3,8.887702E3,2.7331848E3,2.377495E3,4.6871504E4,2.2423215E3,2.4364597E3,3.0459802E2,1.0063057E4,3.7348923E3,8.469727E3,1.4657953E4,1.3555695E4,5.4110454E3,2.3868945E4,9.647547E2,1.4723387E4,6.891504E2,1.2542458E4,5.213138E2,5.480282E3,2.8848496E3,4.572462E3,4.31524E3,6.4891907E2,2.0842659E3,1.7049526E3,6.7254236E2,1.1940972E4,3.493053E4,2.0790747E3,1.6324693E2,2.3079995E3,1.2846019E2,1.5488765E2,1.4971037E2,7.8536357E3,2.2094204E3,2.2054897E3,1.5294027E3,1.4981292E3,6.971597E3,3.7068164E3,1.0951137E4],"tree_param":{"num_deleted":"0","num_feature":"13","num_nodes":"63","size_leaf_vector":"1"}},{"base_weights":[-2.2019947E-2,-3.4073347E-1,2.3767203E-1,-4.148056E-2,-5.649982E-1,4.3176758E-1,7.738599E-2,-1.9206421E-1,1.8743059E-1,-6.20594E-1,1.2628289E-1,3.7578428E-1,1.1940118E0,-3.07705E-1,2.2189261E-1,-2.862183E-1,2.0212564E-1,-1.2440724E-2,6.935898E-1,-7.2322017E-1,-3.922497E-1,-2.8111333E-1,6.849108E-1,6.7710155E-1,3.1118357E-1,1.3004032E0,2.9579568E-1,-7.1515596E-1,1.3183685E-1,5.610297E-1,-1.5508349E-3,-2.0325214E-2,-6.418622E-2,-3.210624E-3,2.9478682E-2,-3.6815446E-2,1.699732E-2,1.793375E-2,1.1318908E-1,-8.265735E-2,-5.117769E-2,-4.6303373E-2,1.738432E-2,-5.107533E-2,3.845027E-2,9.396584E-2,-3.7978914E-2,9.668284E-2,6.872841E-3,2.066716E-2,4.5118947E-2,9.9344835E-2,1.3592632E-1,1.06026314E-1,-2.4582459E-2,-7.899997E-2,1.16678976E-1,3.7168846E-2,-5.4722276E-2,8.072715E-3,1.0011315E-1,-2.1324297E-2,1.568036E-2],"categories":[],"categories_nodes":[],"categories_segments":[],"categories_sizes":[],"default_left":[0,0,0,0,0,0,0,0,0,0,0,0,0,0,0,0,0,0,0,0,0,0,0,0,0,0,0,0,0,0,0,0,0,0,0,0,0,0,0,0,0,0,0,0,0,0,0,0,0,0,0,0,0,0,0,0,0,0,0,0,0,0,0],"id":10,"left_children":[1,3,5,7,9,11,13,15,17,19,21,23,25,27,29,31,33,35,37,39,41,43,45,47,49,51,53,55,57,59,61,-1,-1,-1,-1,-1,-1,-1,-1,-1,-1,-1,-1,-1,-1,-1,-1,-1,-1,-1,-1,-1,-1,-1,-1,-1,-1,-1,-1,-1,-1,-1,-1],"loss_changes":[1.4976453E4,5.452169E3,3.1018198E3,1.1997205E3,1.7848789E3,1.9237686E3,3.039017E3,7.7925635E2,1.3972151E3,1.0068574E3,7.870995E2,8.174668E2,2.9425537E2,2.6688394E3,3.0091956E3,4.9983203E2,8.789693E1,6.4256433E2,8.809076E2,6.4746094E2,5.342583E2,3.0591147E2,3.96003E2,1.3069624E3,5.060769E2,4.8240234E1,1.3619E2,1.0901157E3,1.1678345E3,3.333732E3,8.0252924E2,0E0,0E0,0E0,0E0,0E0,0E0,0E0,0E0,0E0,0E0,0E0,0E0,0E0,0E0,0E0,0E0,0E0,0E0,0E0,0E0,0E0,0E0,0E0,0E0,0E0,0E0,0E0,0E0,0E0,0E0,0E0,0E0],"parents":[2147483647,0,0,1,1,2,2,3,3,4,4,5,5,6,6,7,7,8,8,9,9,10,10,11,11,12,12,13,13,14,14,15,15,16,16,17,17,18,18,19,19,20,20,21,21,22,22,23,23,24,24,25,25,26,26,27,27,28,28,29,29,30,30],"right_children":[2,4,6,8,10,12,14,16,18,20,22,24,26,28,30,32,34,36,38,40,42,44,46,48,50,52,54,56,58,60,62,-1,-1,-1,-1,-1,-1,-1,-1,-1,-1,-1,-1,-1,-1,-1,-1,-1,-1,-1,-1,-1,-1,-1,-1,-1,-1,-1,-1,-1,-1,-1,-1],"split_conditions":[-8.161047E-3,1E0,-1.293312E-1,9.4890475E-2,9.4973147E-1,4.5282702E0,1E0,1.1115298E0,5.477022E-1,3.4176672E-1,1.3855648E-1,-6.886233E-1,4.694876E0,-1.1796479E-1,1E0,1.2015551E0,8.498593E-2,1.5613909E-1,1E0,-1.2850094E-1,1.7171853E0,7.2121847E-1,-1.2912738E-1,1E0,-6.601902E-2,-4.273014E0,-9.5788896E-1,3.929719E-1,1E0,5.810361E-1,1.2554994E-1,-2.0325214E-2,-6.418622E-2,-3.210624E-3,2.9478682E-2,-3.6815446E-2,1.699732E-2,1.793375E-2,1.1318908E-1,-8.265735E-2,-5.117769E-2,-4.6303373E-2,1.738432E-2,-5.107533E-2,3.845027E-2,9.396584E-2,-3.7978914E-2,9.668284E-2,6.872841E-3,2.066716E-2,4.5118947E-2,9.9344835E-2,1.3592632E-1,1.06026314E-1,-2.4582459E-2,-7.899997E-2,1.16678976E-1,3.7168846E-2,-5.4722276E-2,8.072715E-3,1.0011315E-1,-2.1324297E-2,1.568036E-2],"split_indices":[3,10,1,5,7,6,12,9,2,9,1,7,6,7,10,2,5,9,12,3,9,9,6,10,6,5,1,3,10,1,3,0,0,0,0,0,0,0,0,0,0,0,0,0,0,0,0,0,0,0,0,0,0,0,0,0,0,0,0,0,0,0,0],"split_type":[0,0,0,0,0,0,0,0,0,0,0,0,0,0,0,0,0,0,0,0,0,0,0,0,0,0,0,0,0,0,0,0,0,0,0,0,0,0,0,0,0,0,0,0,0,0,0,0,0,0,0,0,0,0,0,0,0,0,0,0,0,0,0],"sum_hessian":[1.8094431E5,8.124024E4,9.970406E4,3.4802434E4,4.643781E4,4.5094887E4,5.4609176E4,2.099318E4,1.3809256E4,4.2981316E4,3.4564949E3,4.2011E4,3.0838887E3,1.4900227E4,3.970895E4,1.694606E4,4.0471182E3,9.900529E3,3.9087266E3,2.9652023E4,1.3329292E4,1.9989894E3,1.4575055E3,7.414851E3,3.459615E4,2.756794E3,3.270946E2,7.732176E3,7.1680513E3,1.5771017E4,2.3937932E4,1.3742098E4,3.2039634E3,1.1470764E3,2.9000417E3,3.3559111E3,6.544618E3,1.7992865E3,2.1094402E3,1.9914465E4,9.737559E3,1.1848162E4,1.4811301E3,1.4865182E3,5.1247125E2,1.1762733E3,2.8123212E2,5.022312E3,2.3925393E3,1.9810865E4,1.4785281E4,4.467205E2,2.3100735E3,1.3532202E2,1.9177258E2,7.437043E3,2.9513263E2,5.29751E3,1.8705413E3,7.541765E3,8.229251E3,1.0243907E4,1.3694025E4],"tree_param":{"num_deleted":"0","num_feature":"13","num_nodes":"63","size_leaf_vector":"1"}},{"base_weights":[-1.9267632E-2,-3.11267E-1,2.1391357E-1,-3.2279592E-2,-5.2690816E-1,9.74478E-2,4.9349475E-1,-2.1980868E-1,1.40265E-1,-5.846625E-1,6.892224E-2,-1.7718916E-1,3.0246502E-1,8.832566E-1,3.8994822E-1,-2.8376088E-1,7.5099754E-1,-1.534046E-1,3.121007E-1,-6.670739E-1,-2.6199013E-1,-5.4894894E-1,2.5293085E-1,4.8548885E-2,-2.7557015E-1,2.559143E-1,8.928035E-1,2.3628822E-1,1.1147374E0,3.1135714E-1,8.252688E-1,-4.2646714E-2,-6.7637763E-3,-1.4091593E-2,1.280205E-1,-5.3704392E-2,9.3525427E-4,2.052649E-2,6.0443383E-2,-7.589534E-2,-4.8583355E-2,-4.8034847E-2,5.1780016E-4,2.1842098E-2,-7.012951E-2,1.90946E-1,1.0585053E-2,-8.884499E-2,6.995929E-3,-6.206574E-2,-1.6392045E-2,6.3862115E-2,1.7833373E-2,1.12803675E-1,-2.5064701E-2,4.33286E-2,-7.2648175E-2,1.2591617E-1,3.2256413E-2,4.009105E-2,-1.2541802E-1,3.141151E-2,1.2611966E-1],"categories":[],"categories_nodes":[],"categories_segments":[],"categories_sizes":[],"default_left":[0,0,0,0,0,0,0,0,0,0,0,0,0,0,0,0,0,0,0,0,0,0,0,0,0,0,0,0,0,0,0,0,0,0,0,0,0,0,0,0,0,0,0,0,0,0,0,0,0,0,0,0,0,0,0,0,0,0,0,0,0,0,0],"id":11,"left_children":[1,3,5,7,9,11,13,15,17,19,21,23,25,27,29,31,33,35,37,39,41,43,45,47,49,51,53,55,57,59,61,-1,-1,-1,-1,-1,-1,-1,-1,-1,-1,-1,-1,-1,-1,-1,-1,-1,-1,-1,-1,-1,-1,-1,-1,-1,-1,-1,-1,-1,-1,-1,-1],"loss_changes":[1.2161906E4,4.771132E3,3.2336309E3,1.1188329E3,1.5393867E3,3.9475322E3,1.1781577E3,1.0288828E3,9.088E2,1.084127E3,4.4959393E2,6.655439E2,1.1028037E3,9.174844E2,7.8911426E2,4.793994E2,4.8374048E2,4.151524E2,3.546211E2,5.4040625E2,4.8414862E2,1.0628186E2,7.4199384E2,1.8246808E2,8.039635E2,1.1045967E3,7.894158E2,3.0686508E2,5.158286E2,2.741153E3,7.8561084E2,0E0,0E0,0E0,0E0,0E0,0E0,0E0,0E0,0E0,0E0,0E0,0E0,0E0,0E0,0E0,0E0,0E0,0E0,0E0,0E0,0E0,0E0,0E0,0E0,0E0,0E0,0E0,0E0,0E0,0E0,0E0,0E0],"parents":[2147483647,0,0,1,1,2,2,3,3,4,4,5,5,6,6,7,7,8,8,9,9,10,10,11,11,12,12,13,13,14,14,15,15,16,16,17,17,18,18,19,19,20,20,21,21,22,22,23,23,24,24,25,25,26,26,27,27,28,28,29,29,30,30],"right_children":[2,4,6,8,10,12,14,16,18,20,22,24,26,28,30,32,34,36,38,40,42,44,46,48,50,52,54,56,58,60,62,-1,-1,-1,-1,-1,-1,-1,-1,-1,-1,-1,-1,-1,-1,-1,-1,-1,-1,-1,-1,-1,-1,-1,-1,-1,-1,-1,-1,-1,-1,-1,-1],"split_conditions":[-8.161047E-3,1E0,1E0,1E0,1.009877E0,1.2554994E-1,-6.886233E-1,1.3946094E-1,-3.4158134E-1,7.2121847E-1,-1.7204107E-1,-3.101127E-1,4.5282702E0,-1.0459467E0,5.810361E-1,-1.6446808E-1,-3.1217402E-1,-1.7456542E-1,1E0,-1.2850094E-1,-2.8108603E-1,5.5272292E-2,-1.4187203E-1,-1.314027E0,1E0,1.3892104E-1,4.6292434E0,2.8428143E-1,-6.936076E-1,5.718389E-1,1E0,-4.2646714E-2,-6.7637763E-3,-1.4091593E-2,1.280205E-1,-5.3704392E-2,9.3525427E-4,2.052649E-2,6.0443383E-2,-7.589534E-2,-4.8583355E-2,-4.8034847E-2,5.1780016E-4,2.1842098E-2,-7.012951E-2,1.90946E-1,1.0585053E-2,-8.884499E-2,6.995929E-3,-6.206574E-2,-1.6392045E-2,6.3862115E-2,1.7833373E-2,1.12803675E-1,-2.5064701E-2,4.33286E-2,-7.2648175E-2,1.2591617E-1,3.2256413E-2,4.009105E-2,-1.2541802E-1,3.141151E-2,1.2611966E-1],"split_indices":[3,10,11,11,2,3,7,5,7,9,6,1,6,2,1,6,2,6,12,3,7,5,3,7,12,3,6,1,2,1,12,0,0,0,0,0,0,0,0,0,0,0,0,0,0,0,0,0,0,0,0,0,0,0,0,0,0,0,0,0,0,0,0],"split_type":[0,0,0,0,0,0,0,0,0,0,0,0,0,0,0,0,0,0,0,0,0,0,0,0,0,0,0,0,0,0,0,0,0,0,0,0,0,0,0,0,0,0,0,0,0,0,0,0,0,0,0,0,0,0,0,0,0,0,0,0,0,0,0],"sum_hessian":[1.7861631E5,7.930604E4,9.931027E4,3.457543E4,4.4730605E4,7.010724E4,2.9203031E4,1.6568432E4,1.8006998E4,4.0778133E4,3.9524734E3,2.9965588E4,4.0141652E4,6.127997E3,2.3075035E4,1.5545197E4,1.0232346E3,6.646892E3,1.1360105E4,3.248102E4,8.297113E3,9.0640045E2,3.046073E3,9.095405E3,2.0870184E4,3.7209152E4,2.932498E3,1.6154395E3,4.5125576E3,1.954788E4,3.527154E3,9.362016E3,6.1831816E3,3.8124243E2,6.419922E2,1.9794325E3,4.66746E3,8.321119E3,3.0389858E3,2.1551688E4,1.0929332E4,4.5653765E3,3.731737E3,1.4995987E2,7.564406E2,2.4736786E2,2.798705E3,2.0217805E2,8.893227E3,5.100399E3,1.5769784E4,6.270098E3,3.0939057E4,2.4322341E3,5.0026382E2,1.3415842E3,2.7385526E2,3.816111E3,6.964465E2,1.8490951E4,1.0569291E3,1.624395E3,1.9027592E3],"tree_param":{"num_deleted":"0","num_feature":"13","num_nodes":"63","size_leaf_vector":"1"}},{"base_weights":[-1.6124073E-2,-2.4334227E-1,2.2177075E-1,-3.830331E-1,1.7394397E-1,1.2676002E-1,4.6299407E-1,-5.2433044E-1,-2.0477448E-1,5.298358E-2,5.9554154E-1,6.665556E-2,5.4792017E-1,8.497983E-1,3.5774526E-1,-2.5411612E-1,-6.104868E-1,-2.3449342E-1,7.9857534E-1,-1.0673008E-1,2.9232147E-1,2.2155474E-1,8.716213E-1,-1.9401853E-1,1.7196849E-1,1.1238112E0,2.5229293E-1,1.0933728E0,9.4588645E-2,2.7154568E-1,7.904493E-1,-4.708229E-2,1.2138407E-2,-6.6702254E-2,1.4453055E-2,-3.907638E-2,-1.004658E-2,5.138606E-2,1.2681492E-1,-1.624845E-2,6.498658E-2,2.0524023E-2,6.17263E-2,-6.1648088E-3,5.5247057E-2,1.0018177E-1,-5.9551634E-2,-2.8752247E-2,3.5501115E-2,-1.8500278E-2,2.6973436E-2,-4.9208995E-2,1.14845455E-1,1.3413768E-1,-5.379024E-3,4.8142288E-2,1.2245969E-1,-8.689014E-3,1.5476348E-1,3.705817E-2,-1.2313358E-1,3.788602E-2,1.1225241E-1],"categories":[],"categories_nodes":[],"categories_segments":[],"categories_sizes":[],"default_left":[0,0,0,0,0,0,0,0,0,0,0,0,0,0,0,0,0,0,0,0,0,0,0,0,0,0,0,0,0,0,0,0,0,0,0,0,0,0,0,0,0,0,0,0,0,0,0,0,0,0,0,0,0,0,0,0,0,0,0,0,0,0,0],"id":12,"left_children":[1,3,5,7,9,11,13,15,17,19,21,23,25,27,29,31,33,35,37,39,41,43,45,47,49,51,53,55,57,59,61,-1,-1,-1,-1,-1,-1,-1,-1,-1,-1,-1,-1,-1,-1,-1,-1,-1,-1,-1,-1,-1,-1,-1,-1,-1,-1,-1,-1,-1,-1,-1,-1],"loss_changes":[9.523359E3,5.252892E3,1.9724756E3,1.7003066E3,1.1524832E3,1.56301E3,9.8966113E2,8.765127E2,8.9033655E2,6.7142737E2,5.199249E2,1.4835353E3,1.3124529E3,9.565122E2,7.12834E2,7.411379E2,1.2190078E3,6.072234E2,1.1400885E2,4.444413E2,1.9871558E2,2.007601E2,5.5423804E2,7.9837726E2,1.343352E3,1.0477954E2,1.6993151E3,3.1502832E2,3.3506586E2,2.3736924E3,4.33443E2,0E0,0E0,0E0,0E0,0E0,0E0,0E0,0E0,0E0,0E0,0E0,0E0,0E0,0E0,0E0,0E0,0E0,0E0,0E0,0E0,0E0,0E0,0E0,0E0,0E0,0E0,0E0,0E0,0E0,0E0,0E0,0E0],"parents":[2147483647,0,0,1,1,2,2,3,3,4,4,5,5,6,6,7,7,8,8,9,9,10,10,11,11,12,12,13,13,14,14,15,15,16,16,17,17,18,18,19,19,20,20,21,21,22,22,23,23,24,24,25,25,26,26,27,27,28,28,29,29,30,30],"right_children":[2,4,6,8,10,12,14,16,18,20,22,24,26,28,30,32,34,36,38,40,42,44,46,48,50,52,54,56,58,60,62,-1,-1,-1,-1,-1,-1,-1,-1,-1,-1,-1,-1,-1,-1,-1,-1,-1,-1,-1,-1,-1,-1,-1,-1,-1,-1,-1,-1,-1,-1,-1,-1],"split_conditions":[-1.1650572E-1,1E0,1E0,1.5613909E-1,1E0,-4.0428653E-2,-6.886233E-1,1E0,2.134304E0,1.8349151E-1,2.8671578E-2,-5.8524143E-3,1E0,-9.245138E-2,5.810361E-1,-1.6446808E-1,1.2512373E0,-2.7291137E-1,8.5225147E-1,1.7171853E0,-1.3406956E-1,4.466454E-1,1.1517105E0,1.1115298E0,1E0,-1.5471752E0,-3.5226382E-2,-1.0459467E0,1.7807629E0,5.718389E-1,1E0,-4.708229E-2,1.2138407E-2,-6.6702254E-2,1.4453055E-2,-3.907638E-2,-1.004658E-2,5.138606E-2,1.2681492E-1,-1.624845E-2,6.498658E-2,2.0524023E-2,6.17263E-2,-6.1648088E-3,5.5247057E-2,1.0018177E-1,-5.9551634E-2,-2.8752247E-2,3.5501115E-2,-1.8500278E-2,2.6973436E-2,-4.9208995E-2,1.14845455E-1,1.3413768E-1,-5.379024E-3,4.8142288E-2,1.2245969E-1,-8.689014E-3,1.5476348E-1,3.705817E-2,-1.2313358E-1,3.788602E-2,1.1225241E-1],"split_indices":[6,11,11,9,12,4,7,10,9,7,8,8,12,4,1,6,2,7,2,9,4,7,1,9,12,9,4,2,1,1,12,0,0,0,0,0,0,0,0,0,0,0,0,0,0,0,0,0,0,0,0,0,0,0,0,0,0,0,0,0,0,0,0],"split_type":[0,0,0,0,0,0,0,0,0,0,0,0,0,0,0,0,0,0,0,0,0,0,0,0,0,0,0,0,0,0,0,0,0,0,0,0,0,0,0,0,0,0,0,0,0,0,0,0,0,0,0,0,0,0,0,0,0,0,0,0,0,0,0],"sum_hessian":[1.7618017E5,9.011238E4,8.606778E4,6.751228E4,2.2600104E4,6.1748723E4,2.4319057E4,3.7659137E4,2.9853148E4,1.756259E4,5.037513E3,5.4038234E4,7.7104907E3,5.200062E3,1.9118994E4,9.105729E3,2.8553406E4,2.8995184E4,8.579632E2,1.0533541E4,7.029049E3,2.140324E3,2.897189E3,1.554901E4,3.8489223E4,2.614406E3,5.0960845E3,3.931479E3,1.2685833E3,1.5944521E4,3.1744722E3,5.77367E3,3.3320586E3,2.6564504E4,1.9889026E3,1.3385552E4,1.5609633E4,5.3555164E2,3.2241153E2,9.811442E3,7.22099E2,5.544985E3,1.4840641E3,1.1535823E3,9.8674176E2,2.6613972E3,2.3579189E2,1.3286821E4,2.2621882E3,8.27455E3,3.0214674E4,3.8926186E1,2.5754797E3,1.1173506E3,3.9787341E3,6.951495E2,3.2363293E3,1.128509E3,1.4007422E2,1.4959546E4,9.8497565E2,1.4186152E3,1.7558568E3],"tree_param":{"num_deleted":"0","num_feature":"13","num_nodes":"63","size_leaf_vector":"1"}},{"base_weights":[-1.9050412E-2,-3.727419E-1,1.1396974E-1,-4.8825994E-1,6.9681615E-2,1.53993E-2,3.547021E-1,-5.9213585E-1,-2.8093362E-1,-7.692958E-2,6.568925E-1,-1.2947597E-1,2.2259122E-1,6.8550766E-1,2.7973437E-1,-6.142942E-1,5.0772005E-1,-3.0989894E-1,5.774652E-1,-2.6117054E-1,2.4579114E-1,1.0009739E0,3.1376246E-1,-2.0596078E-1,2.8185272E-1,3.201262E-1,-1.8623954E-1,1.2948777E-1,9.649652E-1,2.5525448E-1,1.1505558E0,2.4835803E-2,-6.311642E-2,-5.1549863E-2,1.6651256E-1,-8.161196E-3,-4.0521245E-2,8.953796E-2,3.6930752E-3,-5.4623187E-2,1.0494412E-2,8.138107E-3,4.5862686E-2,4.3408345E-2,1.2385813E-1,2.4235712E-2,1.5688495E-1,-2.5395889E-2,1.2260021E-2,-2.142147E-2,5.1705938E-2,2.6753426E-2,8.86091E-2,-9.031123E-2,1.3414355E-2,-4.1163344E-2,3.4734733E-2,1.0977451E-1,2.802436E-2,3.5648018E-2,1.0889003E-2,1.2144738E-1,-2.1064226E-2],"categories":[],"categories_nodes":[],"categories_segments":[],"categories_sizes":[],"default_left":[0,0,0,0,0,0,0,0,0,0,0,0,0,0,0,0,0,0,0,0,0,0,0,0,0,0,0,0,0,0,0,0,0,0,0,0,0,0,0,0,0,0,0,0,0,0,0,0,0,0,0,0,0,0,0,0,0,0,0,0,0,0,0],"id":13,"left_children":[1,3,5,7,9,11,13,15,17,19,21,23,25,27,29,31,33,35,37,39,41,43,45,47,49,51,53,55,57,59,61,-1,-1,-1,-1,-1,-1,-1,-1,-1,-1,-1,-1,-1,-1,-1,-1,-1,-1,-1,-1,-1,-1,-1,-1,-1,-1,-1,-1,-1,-1,-1,-1],"loss_changes":[8.1805586E3,2.4287817E3,2.9982446E3,8.112842E2,8.4721875E2,2.6910315E3,9.100322E2,6.121133E2,3.129447E2,4.682716E2,2.316828E2,1.659866E3,1.4711177E3,1.0533867E3,6.375408E2,3.5831445E2,5.886305E2,2.647312E2,7.048094E1,5.233284E2,1.0005986E2,1.3144574E2,8.780563E1,7.0162646E2,9.653442E2,8.86228E2,1.6323337E3,2.6766782E2,4.098086E2,4.3120703E2,7.151648E1,0E0,0E0,0E0,0E0,0E0,0E0,0E0,0E0,0E0,0E0,0E0,0E0,0E0,0E0,0E0,0E0,0E0,0E0,0E0,0E0,0E0,0E0,0E0,0E0,0E0,0E0,0E0,0E0,0E0,0E0,0E0,0E0],"parents":[2147483647,0,0,1,1,2,2,3,3,4,4,5,5,6,6,7,7,8,8,9,9,10,10,11,11,12,12,13,13,14,14,15,15,16,16,17,17,18,18,19,19,20,20,21,21,22,22,23,23,24,24,25,25,26,26,27,27,28,28,29,29,30,30],"right_children":[2,4,6,8,10,12,14,16,18,20,22,24,26,28,30,32,34,36,38,40,42,44,46,48,50,52,54,56,58,60,62,-1,-1,-1,-1,-1,-1,-1,-1,-1,-1,-1,-1,-1,-1,-1,-1,-1,-1,-1,-1,-1,-1,-1,-1,-1,-1,-1,-1,-1,-1,-1,-1],"split_conditions":[-1.6446808E-1,1E0,1E0,3.7526858E-1,6.238295E-1,-7.359203E-2,-6.886233E-1,2.0933185E0,1.992313E0,9.142834E-1,1.9559698E-1,1.0835494E0,1.010198E0,-1.0459467E0,4.573708E0,-1.8227841E0,-1.6699241E-1,1E0,-1.6028797E-2,-1.6951674E-1,-9.821039E-3,1E0,3.4199548E0,1.7416582E-1,-5.2308947E-1,4.5282702E0,1E0,-4.3265443E-2,-6.936076E-1,-2.814239E-1,-1.4148142E0,2.4835803E-2,-6.311642E-2,-5.1549863E-2,1.6651256E-1,-8.161196E-3,-4.0521245E-2,8.953796E-2,3.6930752E-3,-5.4623187E-2,1.0494412E-2,8.138107E-3,4.5862686E-2,4.3408345E-2,1.2385813E-1,2.4235712E-2,1.5688495E-1,-2.5395889E-2,1.2260021E-2,-2.142147E-2,5.1705938E-2,2.6753426E-2,8.86091E-2,-9.031123E-2,1.3414355E-2,-4.1163344E-2,3.4734733E-2,1.0977451E-1,2.802436E-2,3.5648018E-2,1.0889003E-2,1.2144738E-1,-2.1064226E-2],"split_indices":[6,11,11,0,2,6,7,7,0,0,0,2,1,2,6,1,6,10,7,6,8,12,2,8,0,6,12,8,2,1,8,0,0,0,0,0,0,0,0,0,0,0,0,0,0,0,0,0,0,0,0,0,0,0,0,0,0,0,0,0,0,0,0],"split_type":[0,0,0,0,0,0,0,0,0,0,0,0,0,0,0,0,0,0,0,0,0,0,0,0,0,0,0,0,0,0,0,0,0,0,0,0,0,0,0,0,0,0,0,0,0,0,0,0,0,0,0,0,0,0,0,0,0,0,0,0,0,0,0],"sum_hessian":[1.7387403E5,4.752015E4,1.2635388E5,3.768152E4,9.838629E3,8.9648016E4,3.6705863E4,2.5102283E4,1.2579238E4,7.8735166E3,1.9651123E3,5.275789E4,3.6890125E4,6.779757E3,2.9926107E4,2.4607068E4,4.9521518E2,1.2169357E4,4.0988046E2,5.0124272E3,2.8610894E3,9.800931E2,9.850193E2,4.448655E4,8.271341E3,2.9784809E4,7.1053174E3,2.2683599E3,4.511397E3,2.9109219E4,8.168893E2,4.7160736E2,2.413546E4,2.6309286E2,2.321223E2,3.5852275E3,8.58413E3,2.5755716E2,1.5232329E2,2.8180444E3,2.1943826E3,1.6152233E3,1.245866E3,2.9042844E2,6.896647E2,9.3319977E2,5.1819515E1,3.881654E4,5.670014E3,2.6602822E3,5.6110586E3,2.7253904E4,2.5309043E3,2.194194E3,4.911123E3,6.507281E2,1.6176317E3,3.778022E3,7.3337524E2,1.7206842E4,1.1902377E4,7.8042413E2,3.646518E1],"tree_param":{"num_deleted":"0","num_feature":"13","num_nodes":"63","size_leaf_vector":"1"}},{"base_weights":[-1.48110865E-2,-3.7150422E-1,1.0500604E-1,-4.7733396E-1,5.1759783E-2,2.2948287E-1,-6.1493203E-2,-5.968662E-1,-2.862749E-1,-6.899064E-2,6.005213E-1,1.7925718E-1,7.7849305E-1,-1.9631018E-1,1.9584931E-1,-6.964441E-1,-3.2596582E-1,-4.520558E-1,-7.567716E-2,-2.8356397E-1,1.3988928E-1,3.9417812E-1,1.1079584E0,6.621116E-2,3.2873955E-1,-2.7029753E-1,8.211207E-1,-3.1942242E-1,4.9531903E-2,1.3034971E-1,7.224473E-1,-8.088009E-2,-5.403089E-2,-3.9860187E-3,-8.1957065E-2,-4.920709E-2,1.3841183E-1,4.9643856E-2,-1.6740732E-2,-7.140642E-2,1.2256552E-2,8.033132E-2,3.2939748E-3,-5.9553403E-2,4.7718886E-2,1.1722827E-1,-1.08028375E-1,2.2642648E-2,-5.021898E-2,1.80098E-2,7.304973E-2,6.0753264E-2,-1.3689695E-1,1.173557E-1,6.706066E-2,-3.9045278E-2,2.5625725E-3,9.705558E-2,4.2066528E-4,2.0244636E-2,-2.3377813E-2,-4.9975924E-2,8.776405E-2],"categories":[],"categories_nodes":[],"categories_segments":[],"categories_sizes":[],"default_left":[0,0,0,0,0,0,0,0,0,0,0,0,0,0,0,0,0,0,0,0,0,0,0,0,0,0,0,0,0,0,0,0,0,0,0,0,0,0,0,0,0,0,0,0,0,0,0,0,0,0,0,0,0,0,0,0,0,0,0,0,0,0,0],"id":14,"left_children":[1,3,5,7,9,11,13,15,17,19,21,23,25,27,29,31,33,35,37,39,41,43,45,47,49,51,53,55,57,59,61,-1,-1,-1,-1,-1,-1,-1,-1,-1,-1,-1,-1,-1,-1,-1,-1,-1,-1,-1,-1,-1,-1,-1,-1,-1,-1,-1,-1,-1,-1,-1,-1],"loss_changes":[7.3512896E3,1.9374531E3,2.6685554E3,7.8993066E2,5.733922E2,2.0313501E3,1.9110415E3,5.7379346E2,4.6489526E2,3.1792538E2,1.6282385E2,1.140624E3,2.763374E2,1.0940509E3,6.5296704E2,2.7241846E2,8.080489E2,5.4809644E2,3.079875E2,6.1190283E2,2.5490839E2,9.156406E1,6.4682556E1,3.5004377E3,1.7355576E3,2.3414137E2,3.1380713E2,5.903528E2,5.0342706E2,4.4220816E2,3.977362E2,0E0,0E0,0E0,0E0,0E0,0E0,0E0,0E0,0E0,0E0,0E0,0E0,0E0,0E0,0E0,0E0,0E0,0E0,0E0,0E0,0E0,0E0,0E0,0E0,0E0,0E0,0E0,0E0,0E0,0E0,0E0,0E0],"parents":[2147483647,0,0,1,1,2,2,3,3,4,4,5,5,6,6,7,7,8,8,9,9,10,10,11,11,12,12,13,13,14,14,15,15,16,16,17,17,18,18,19,19,20,20,21,21,22,22,23,23,24,24,25,25,26,26,27,27,28,28,29,29,30,30],"right_children":[2,4,6,8,10,12,14,16,18,20,22,24,26,28,30,32,34,36,38,40,42,44,46,48,50,52,54,56,58,60,62,-1,-1,-1,-1,-1,-1,-1,-1,-1,-1,-1,-1,-1,-1,-1,-1,-1,-1,-1,-1,-1,-1,-1,-1,-1,-1,-1,-1,-1,-1,-1,-1],"split_conditions":[-1.2850094E-1,1E0,1E0,1.9559698E-1,1E0,3.929719E-1,-9.245138E-2,2.8406504E-1,-1.6699241E-1,-1.6699241E-1,1.14699565E-1,1E0,-2.0719545E0,5.549402E-1,1.4532982E0,-1.7204107E-1,9.3381417E-1,1.7907912E-1,-1.134839E0,5.549402E-1,-5.2308947E-1,-1.0621043E0,1.8126415E0,3.1407124E-1,7.0838577E-1,2.9793367E-1,-6.1162204E-1,8.6777306E-1,-1.7286212E0,1.1053042E0,1E0,-8.088009E-2,-5.403089E-2,-3.9860187E-3,-8.1957065E-2,-4.920709E-2,1.3841183E-1,4.9643856E-2,-1.6740732E-2,-7.140642E-2,1.2256552E-2,8.033132E-2,3.2939748E-3,-5.9553403E-2,4.7718886E-2,1.1722827E-1,-1.08028375E-1,2.2642648E-2,-5.021898E-2,1.80098E-2,7.304973E-2,6.0753264E-2,-1.3689695E-1,1.173557E-1,6.706066E-2,-3.9045278E-2,2.5625725E-3,9.705558E-2,4.2066528E-4,2.0244636E-2,-2.3377813E-2,-4.9975924E-2,8.776405E-2],"split_indices":[3,11,10,0,12,3,4,2,6,6,5,12,1,0,0,6,1,5,1,0,0,0,0,1,1,5,2,2,1,2,12,0,0,0,0,0,0,0,0,0,0,0,0,0,0,0,0,0,0,0,0,0,0,0,0,0,0,0,0,0,0,0,0],"split_type":[0,0,0,0,0,0,0,0,0,0,0,0,0,0,0,0,0,0,0,0,0,0,0,0,0,0,0,0,0,0,0,0,0,0,0,0,0,0,0,0,0,0,0,0,0,0,0,0,0,0,0,0,0,0,0,0,0,0,0,0,0,0,0],"sum_hessian":[1.7200595E5,4.325008E4,1.28755875E5,3.459925E4,8.650827E3,7.3675445E4,5.508043E4,2.1281973E4,1.3317279E4,7.091167E3,1.5596604E3,6.7501625E4,6.173817E3,3.6145234E4,1.8935193E4,1.5560342E4,5.7216304E3,7.4506025E3,5.866677E3,3.4979722E3,3.5931948E3,1.1101892E3,4.494712E2,3.8436297E4,2.906533E4,2.4083124E2,5.932986E3,2.4084406E4,1.2060828E4,1.6841805E4,2.0933894E3,9.045946E3,6.514395E3,3.6229575E3,2.098673E3,7.2924663E3,1.5813582E2,8.098966E2,5.0567803E3,1.6977903E3,1.8001819E3,4.9780292E2,3.0953918E3,8.533901E1,1.0248502E3,4.3713153E2,1.2339669E1,2.9985152E4,8.451145E3,2.1217148E4,7.848182E3,1.34068E2,1.0676324E2,1.7732865E3,4.159699E3,1.9972998E4,4.111409E3,5.646354E2,1.1496193E4,1.4058889E4,2.7829158E3,2.3554185E2,1.8578477E3],"tree_param":{"num_deleted":"0","num_feature":"13","num_nodes":"63","size_leaf_vector":"1"}},{"base_weights":[-1.3473308E-2,-3.4880573E-1,9.655043E-2,-1.1477675E-1,-5.101289E-1,6.0057383E-2,5.5200166E-1,-1.4423856E-1,7.4079233E-1,-5.639087E-1,1.5875491E-1,2.2131261E-1,-4.4381145E-2,8.5041195E-1,3.3170125E-1,-2.533115E-1,1.4054531E-1,-4.8249465E-1,1.2413747E0,-5.8398116E-1,9.8407954E-1,-6.698466E-1,5.3619176E-1,3.590514E-2,2.8937027E-1,-1.643174E-1,1.2599531E-1,1.1449527E0,4.748283E-1,-7.162893E-1,6.385747E-1,-4.716104E-2,-1.0746624E-2,8.309511E-3,1.2816879E-1,3.5692104E-3,-7.334722E-2,1.4656582E-1,7.284317E-3,-6.2709585E-2,5.4231915E-3,7.55997E-3,2.0043902E-1,-9.615458E-2,-2.3856053E-2,-8.553526E-3,1.3236438E-1,-2.5842091E-2,1.6551929E-2,6.2065955E-2,2.2369713E-2,-3.9344367E-2,-7.8026946E-3,6.265444E-3,7.319283E-2,9.7338945E-2,1.23351E-1,1.362137E-1,2.9549409E-2,4.7969516E-2,-8.673249E-2,1.2810722E-1,5.0225195E-2],"categories":[],"categories_nodes":[],"categories_segments":[],"categories_sizes":[],"default_left":[0,0,0,0,0,0,0,0,0,0,0,0,0,0,0,0,0,0,0,0,0,0,0,0,0,0,0,0,0,0,0,0,0,0,0,0,0,0,0,0,0,0,0,0,0,0,0,0,0,0,0,0,0,0,0,0,0,0,0,0,0,0,0],"id":15,"left_children":[1,3,5,7,9,11,13,15,17,19,21,23,25,27,29,31,33,35,37,39,41,43,45,47,49,51,53,55,57,59,61,-1,-1,-1,-1,-1,-1,-1,-1,-1,-1,-1,-1,-1,-1,-1,-1,-1,-1,-1,-1,-1,-1,-1,-1,-1,-1,-1,-1,-1,-1,-1,-1],"loss_changes":[6.2722534E3,1.5855303E3,2.1274548E3,4.3207068E2,8.94437E2,1.9959009E3,6.238176E2,5.1473816E2,3.500852E2,7.155366E2,5.791621E2,5.8778076E2,1.4698092E3,4.4531934E2,1.7577979E3,3.8135883E2,3.00615E2,2.1730915E1,1.0594708E2,6.25188E2,2.729652E2,7.256372E1,6.23078E2,4.7727267E2,7.4115576E2,8.3453076E2,1.1403606E3,3.2898193E1,2.817183E2,2.2409473E2,3.6943628E2,0E0,0E0,0E0,0E0,0E0,0E0,0E0,0E0,0E0,0E0,0E0,0E0,0E0,0E0,0E0,0E0,0E0,0E0,0E0,0E0,0E0,0E0,0E0,0E0,0E0,0E0,0E0,0E0,0E0,0E0,0E0,0E0],"parents":[2147483647,0,0,1,1,2,2,3,3,4,4,5,5,6,6,7,7,8,8,9,9,10,10,11,11,12,12,13,13,14,14,15,15,16,16,17,17,18,18,19,19,20,20,21,21,22,22,23,23,24,24,25,25,26,26,27,27,28,28,29,29,30,30],"right_children":[2,4,6,8,10,12,14,16,18,20,22,24,26,28,30,32,34,36,38,40,42,44,46,48,50,52,54,56,58,60,62,-1,-1,-1,-1,-1,-1,-1,-1,-1,-1,-1,-1,-1,-1,-1,-1,-1,-1,-1,-1,-1,-1,-1,-1,-1,-1,-1,-1,-1,-1,-1,-1],"split_conditions":[-1.2850094E-1,1E0,3.929719E-1,1.8808757E-1,9.6898824E-1,-2.9083362E-1,1E0,9.142834E-1,-5.7839113E-1,-9.245138E-2,-1.444741E-1,-8.161047E-3,4.60706E-1,-3.727069E-2,6.432867E-2,-1.444741E-1,1.1936272E0,2.4464466E-1,3.7526858E-1,1.4532982E0,-2.8944543E-1,3.184952E-2,1.4050266E-1,1.5925363E-2,-6.886233E-1,1E0,2.2751288E-1,-1.5377317E-1,-1.6374625E-1,-9.778621E-1,4.06343E-1,-4.716104E-2,-1.0746624E-2,8.309511E-3,1.2816879E-1,3.5692104E-3,-7.334722E-2,1.4656582E-1,7.284317E-3,-6.2709585E-2,5.4231915E-3,7.55997E-3,2.0043902E-1,-9.615458E-2,-2.3856053E-2,-8.553526E-3,1.3236438E-1,-2.5842091E-2,1.6551929E-2,6.2065955E-2,2.2369713E-2,-3.9344367E-2,-7.8026946E-3,6.265444E-3,7.319283E-2,9.7338945E-2,1.23351E-1,1.362137E-1,2.9549409E-2,4.7969516E-2,-8.673249E-2,1.2810722E-1,5.0225195E-2],"split_indices":[3,10,3,8,7,1,12,0,1,4,4,3,2,8,8,4,1,8,0,0,7,8,1,0,7,12,8,1,0,1,3,0,0,0,0,0,0,0,0,0,0,0,0,0,0,0,0,0,0,0,0,0,0,0,0,0,0,0,0,0,0,0,0],"split_type":[0,0,0,0,0,0,0,0,0,0,0,0,0,0,0,0,0,0,0,0,0,0,0,0,0,0,0,0,0,0,0,0,0,0,0,0,0,0,0,0,0,0,0,0,0,0,0,0,0,0,0,0,0,0,0,0,0,0,0,0,0,0,0],"sum_hessian":[1.700024E5,4.199821E4,1.280042E5,1.7138293E4,2.4859918E4,1.1850994E5,9.494262E3,1.6568691E4,5.6960016E2,2.3010156E4,1.8497626E3,4.6583656E4,7.192628E4,4.0308782E3,5.4633833E3,1.1980566E4,4.588126E3,1.6535468E2,4.0424545E2,2.2716285E4,2.9387042E2,5.785688E2,1.2711938E3,1.2508934E4,3.4074723E4,4.2211902E4,2.971438E4,2.2578835E3,1.7729948E3,1.2370674E3,4.226316E3,4.7972305E3,7.1833354E3,4.369316E3,2.188104E2,5.4104942E1,1.11249725E2,3.388651E2,6.538035E1,2.1278953E4,1.4373324E3,1.560745E2,1.3779591E2,3.4426483E2,2.3430397E2,7.107727E2,5.604211E2,3.8239023E3,8.685031E3,5.6356455E3,2.8439076E4,1.1546872E4,3.066503E4,2.6903326E4,2.811056E3,7.731578E2,1.4847258E3,2.968902E2,1.4761046E3,1.3838887E2,1.0986785E3,7.381657E2,3.48815E3],"tree_param":{"num_deleted":"0","num_feature":"13","num_nodes":"63","size_leaf_vector":"1"}},{"base_weights":[-1.2754863E-2,-2.1596979E-1,1.3813482E-1,-1.7790804E-2,-3.8713583E-1,5.62451E-2,3.3991775E-1,-7.816037E-2,2.9519016E-1,-4.4038954E-1,1.0429618E-1,-1.4201345E-1,2.0320001E-1,6.1852634E-1,2.480532E-1,-9.88852E-2,1.0477165E0,1.9382161E-1,9.022195E-1,-6.581415E-1,-3.400163E-1,1.5102572E0,3.0600576E-2,5.271314E-2,-2.15622E-1,5.6341094E-1,1.3247734E-1,1.5670422E-1,8.559429E-1,5.6615305E-1,1.41711E-1,-2.3479836E-2,2.522254E-3,-3.401723E-2,1.4667742E-1,2.5430178E-2,-2.0809794E-2,1.06289186E-1,1.1648851E-3,-7.047422E-2,2.4917921E-2,7.3002115E-2,-3.6901366E-2,1.7654191E-1,-3.726401E-2,-4.952734E-2,2.006745E-2,2.6484415E-2,-5.568837E-3,-2.4047885E-2,3.8431432E-2,9.679412E-2,4.1595846E-2,-5.2055866E-2,1.8103883E-2,8.096014E-3,1.2206043E-1,2.7172318E-2,1.0288155E-1,1.1233099E-1,4.7062024E-2,-2.9808707E-3,3.1087441E-2],"categories":[],"categories_nodes":[],"categories_segments":[],"categories_sizes":[],"default_left":[0,0,0,0,0,0,0,0,0,0,0,0,0,0,0,0,0,0,0,0,0,0,0,0,0,0,0,0,0,0,0,0,0,0,0,0,0,0,0,0,0,0,0,0,0,0,0,0,0,0,0,0,0,0,0,0,0,0,0,0,0,0,0],"id":16,"left_children":[1,3,5,7,9,11,13,15,17,19,21,23,25,27,29,31,33,35,37,39,41,43,45,47,49,51,53,55,57,59,61,-1,-1,-1,-1,-1,-1,-1,-1,-1,-1,-1,-1,-1,-1,-1,-1,-1,-1,-1,-1,-1,-1,-1,-1,-1,-1,-1,-1,-1,-1,-1,-1],"loss_changes":[5.166555E3,2.4354626E3,1.5977397E3,6.2871564E2,1.0082866E3,2.0040502E3,7.141804E2,6.509128E2,3.307908E2,7.593701E2,3.9012543E2,4.1972803E2,1.00621375E3,7.5856885E2,7.1001306E2,4.6207755E2,2.938639E2,1.12164246E2,1.0998724E2,4.6385693E2,7.385171E2,9.089847E1,3.2031024E2,1.8474945E2,3.1695923E2,3.8613916E2,1.0472678E3,1.8923714E2,4.611848E2,2.7924854E2,4.565978E2,0E0,0E0,0E0,0E0,0E0,0E0,0E0,0E0,0E0,0E0,0E0,0E0,0E0,0E0,0E0,0E0,0E0,0E0,0E0,0E0,0E0,0E0,0E0,0E0,0E0,0E0,0E0,0E0,0E0,0E0,0E0,0E0],"parents":[2147483647,0,0,1,1,2,2,3,3,4,4,5,5,6,6,7,7,8,8,9,9,10,10,11,11,12,12,13,13,14,14,15,15,16,16,17,17,18,18,19,19,20,20,21,21,22,22,23,23,24,24,25,25,26,26,27,27,28,28,29,29,30,30],"right_children":[2,4,6,8,10,12,14,16,18,20,22,24,26,28,30,32,34,36,38,40,42,44,46,48,50,52,54,56,58,60,62,-1,-1,-1,-1,-1,-1,-1,-1,-1,-1,-1,-1,-1,-1,-1,-1,-1,-1,-1,-1,-1,-1,-1,-1,-1,-1,-1,-1,-1,-1,-1,-1],"split_conditions":[-8.161047E-3,1E0,1E0,1.2736267E0,1.0324727E0,1.2554994E-1,-7.0302683E-1,3.1042492E-1,1.3450865E-1,-1.4187203E-1,-1.9066581E-1,-4.1412702E-1,1.3892104E-1,-1.0157092E0,1.1965184E-1,1E0,-5.7839113E-1,1.1965184E-1,2.3959802E-1,-1.594194E-1,-1.7030765E0,-5.5921685E-2,1.4050266E-1,1.858115E-2,1.7807629E0,-5.2308947E-1,-1.2417759E0,3.4954365E-2,-7.2216994E-1,-1.0621043E0,1.444132E-1,-2.3479836E-2,2.522254E-3,-3.401723E-2,1.4667742E-1,2.5430178E-2,-2.0809794E-2,1.06289186E-1,1.1648851E-3,-7.047422E-2,2.4917921E-2,7.3002115E-2,-3.6901366E-2,1.7654191E-1,-3.726401E-2,-4.952734E-2,2.006745E-2,2.6484415E-2,-5.568837E-3,-2.4047885E-2,3.8431432E-2,9.679412E-2,4.1595846E-2,-5.2055866E-2,1.8103883E-2,8.096014E-3,1.2206043E-1,2.7172318E-2,1.0288155E-1,1.1233099E-1,4.7062024E-2,-2.9808707E-3,3.1087441E-2],"split_indices":[3,10,11,0,2,3,2,8,5,3,8,1,3,2,5,11,1,5,8,6,1,6,1,3,1,0,0,6,1,0,5,0,0,0,0,0,0,0,0,0,0,0,0,0,0,0,0,0,0,0,0,0,0,0,0,0,0,0,0,0,0,0,0],"split_type":[0,0,0,0,0,0,0,0,0,0,0,0,0,0,0,0,0,0,0,0,0,0,0,0,0,0,0,0,0,0,0,0,0,0,0,0,0,0,0,0,0,0,0,0,0,0,0,0,0,0,0,0,0,0,0,0,0,0,0,0,0,0,0],"sum_hessian":[1.6849234E5,7.17974E4,9.669494E4,3.3273945E4,3.8523457E4,6.878262E4,2.7912326E4,2.7894553E4,5.3793916E3,3.4757312E4,3.7661445E3,2.9279994E4,3.950262E4,6.919602E3,2.0992725E4,2.7391342E4,5.0321146E2,4.6108965E3,7.6849506E2,1.0964381E4,2.3792932E4,1.8653767E2,3.5796067E3,8.031668E3,2.1248326E4,6.481598E3,3.3021023E4,2.3501594E3,4.5694424E3,5.2583213E3,1.5734403E4,1.3073821E4,1.43175205E4,1.1669054E2,3.865209E2,4.0083438E3,6.0255255E2,6.5077893E2,1.1771613E2,1.0429069E4,5.3531165E2,6.270327E2,2.3165898E4,1.6437747E2,2.2160198E1,8.7416394E2,2.7054429E3,2.716069E3,5.315599E3,2.0403715E4,8.446107E2,1.7297771E3,4.751821E3,2.284754E3,3.0736268E4,2.1950532E3,1.5510616E2,1.0440947E3,3.525348E3,7.679217E2,4.4903994E3,7.812905E3,7.9214985E3],"tree_param":{"num_deleted":"0","num_feature":"13","num_nodes":"63","size_leaf_vector":"1"}},{"base_weights":[-1.0715143E-2,-2.9699957E-1,7.973854E-2,-8.950889E-2,-4.4791684E-1,1.8019783E-1,-5.463832E-2,-3.411939E-2,-4.8944718E-1,-6.251374E-1,-2.6100248E-1,1.3985004E-1,6.4258426E-1,-1.0756489E-1,3.012947E-1,-1.4068507E-1,6.2793064E-1,-8.3372486E-1,9.147865E-1,-6.5680003E-1,2.2909078E-1,6.0645515E-1,-3.1697863E-1,3.818296E-2,2.732132E-1,-1.1068487E-2,7.10421E-1,-2.0114638E-1,3.324786E-2,4.860295E-1,1.2407834E-1,-2.5829598E-2,1.3576399E-2,3.6877847E-1,2.2136828E-2,7.82359E-2,-1.00836955E-1,-6.4808116E-3,2.7207598E-1,3.4909134E-3,-6.852617E-2,-3.161995E-2,1.4523351E-1,-5.0676566E-2,1.2963729E-1,-3.5987016E-2,4.0290784E-2,1.7442659E-2,-4.4312447E-2,1.3917938E-2,6.405856E-2,1.3613085E-1,-8.4733695E-2,4.08377E-2,9.300708E-2,-2.6000872E-2,8.547448E-3,5.7619162E-2,-7.852212E-3,2.9022433E-3,7.06555E-2,-1.81043E-2,5.9764016E-2],"categories":[],"categories_nodes":[],"categories_segments":[],"categories_sizes":[],"default_left":[0,0,0,0,0,0,0,0,0,0,0,0,0,0,0,0,0,0,0,0,0,0,0,0,0,0,0,0,0,0,0,0,0,0,0,0,0,0,0,0,0,0,0,0,0,0,0,0,0,0,0,0,0,0,0,0,0,0,0,0,0,0,0],"id":17,"left_children":[1,3,5,7,9,11,13,15,17,19,21,23,25,27,29,31,33,35,37,39,41,43,45,47,49,51,53,55,57,59,61,-1,-1,-1,-1,-1,-1,-1,-1,-1,-1,-1,-1,-1,-1,-1,-1,-1,-1,-1,-1,-1,-1,-1,-1,-1,-1,-1,-1,-1,-1,-1,-1],"loss_changes":[4.3158154E3,1.2529426E3,1.709679E3,3.7322183E2,7.6709863E2,1.3518501E3,1.0206333E3,1.0443795E3,9.9162335E2,3.217837E2,5.4770465E2,9.037125E2,2.5795703E2,6.215465E2,2.2948053E2,4.1462915E2,2.5519697E3,4.655526E2,7.151314E2,2.2580957E2,2.8445093E2,5.2589496E2,3.2723682E2,2.4803445E3,1.4195527E3,6.296369E2,3.4905615E2,4.780907E2,1.1428635E3,3.4590936E2,5.175985E2,0E0,0E0,0E0,0E0,0E0,0E0,0E0,0E0,0E0,0E0,0E0,0E0,0E0,0E0,0E0,0E0,0E0,0E0,0E0,0E0,0E0,0E0,0E0,0E0,0E0,0E0,0E0,0E0,0E0,0E0,0E0,0E0],"parents":[2147483647,0,0,1,1,2,2,3,3,4,4,5,5,6,6,7,7,8,8,9,9,10,10,11,11,12,12,13,13,14,14,15,15,16,16,17,17,18,18,19,19,20,20,21,21,22,22,23,23,24,24,25,25,26,26,27,27,28,28,29,29,30,30],"right_children":[2,4,6,8,10,12,14,16,18,20,22,24,26,28,30,32,34,36,38,40,42,44,46,48,50,52,54,56,58,60,62,-1,-1,-1,-1,-1,-1,-1,-1,-1,-1,-1,-1,-1,-1,-1,-1,-1,-1,-1,-1,-1,-1,-1,-1,-1,-1,-1,-1,-1,-1,-1,-1],"split_conditions":[-1.2850094E-1,1E0,1E0,1.346568E0,-1.7204107E-1,3.929719E-1,1.2736267E0,6.080611E-1,1E0,1.6329699E0,4.0415473E-2,1E0,-7.0276105E-1,1.2554994E-1,1.3946094E-1,9.142834E-1,-1.4214475E0,8.498593E-2,2.6151166E0,-1.7030765E0,-1.4187203E-1,-5.1787055E-1,1.5513834E0,3.0268845E-1,7.0838577E-1,1E0,-2.3448029E-1,8.5225147E-1,1.3892104E-1,-8.161047E-3,2.5926092E-1,-2.5829598E-2,1.3576399E-2,3.6877847E-1,2.2136828E-2,7.82359E-2,-1.00836955E-1,-6.4808116E-3,2.7207598E-1,3.4909134E-3,-6.852617E-2,-3.161995E-2,1.4523351E-1,-5.0676566E-2,1.2963729E-1,-3.5987016E-2,4.0290784E-2,1.7442659E-2,-4.4312447E-2,1.3917938E-2,6.405856E-2,1.3613085E-1,-8.4733695E-2,4.08377E-2,9.300708E-2,-2.6000872E-2,8.547448E-3,5.7619162E-2,-7.852212E-3,2.9022433E-3,7.06555E-2,-1.81043E-2,5.9764016E-2],"split_indices":[3,10,10,2,6,3,0,2,12,0,5,12,0,3,5,0,0,5,2,1,3,2,2,1,1,12,1,2,3,3,3,0,0,0,0,0,0,0,0,0,0,0,0,0,0,0,0,0,0,0,0,0,0,0,0,0,0,0,0,0,0,0,0],"split_type":[0,0,0,0,0,0,0,0,0,0,0,0,0,0,0,0,0,0,0,0,0,0,0,0,0,0,0,0,0,0,0,0,0,0,0,0,0,0,0,0,0,0,0,0,0,0,0,0,0,0,0,0,0,0,0,0,0,0,0,0,0,0,0],"sum_hessian":[1.6666012E5,4.0014312E4,1.2664582E5,1.6850049E4,2.3164264E4,7.2468914E4,5.41769E4,1.4801454E4,2.048594E3,1.1888988E4,1.1275276E4,6.6654195E4,5.81472E3,4.7164594E4,7.012307E3,1.2750097E4,2.0513577E3,1.6456143E3,4.0297977E2,1.1464398E4,4.2458948E2,6.827735E2,1.0592503E4,3.7822734E4,2.8831463E4,5.46659E2,5.268061E3,2.833438E4,1.883021E4,3.4321948E3,3.5801125E3,8.94501E3,3.805087E3,2.3962025E2,1.8117373E3,1.6009685E2,1.4855173E3,2.618539E2,1.4112584E2,4.5293216E2,1.1011467E4,2.941326E2,1.3045686E2,2.612892E2,4.2148428E2,9.997481E3,5.950209E2,2.9478973E4,8.343763E3,2.1125564E4,7.7058984E3,2.0670073E2,3.3995825E2,2.219418E3,3.0486433E3,2.3507225E4,4.827155E3,3.2140579E3,1.5616154E4,1.1176378E3,2.314557E3,2.1775186E3,1.4025939E3],"tree_param":{"num_deleted":"0","num_feature":"13","num_nodes":"63","size_leaf_vector":"1"}},{"base_weights":[-9.6291E-3,-2.6148248E-1,7.8016E-2,-6.613034E-2,-4.1133723E-1,4.7275163E-2,4.5922875E-1,-1.9529147E-2,-4.0971845E-1,-5.895843E-1,-2.4512623E-1,1.8571246E-1,-3.9898947E-2,7.403597E-1,2.6366773E-1,-1.09335095E-1,5.3117543E-1,-8.761698E-1,4.131162E-1,-7.5686425E-1,-3.487363E-1,-3.2012957E-1,4.0075055E-1,1.265542E-1,3.3487147E-1,-1.3887785E-1,9.871023E-2,4.0638512E-1,1.0864066E0,4.908562E-1,-6.7998827E-1,-3.011163E-2,3.4078122E-3,2.6443592E-1,1.7931623E-2,4.0606216E-2,-9.765861E-2,-1.02905326E-1,9.416904E-2,-8.166388E-2,-5.8703043E-2,-4.277281E-2,3.999626E-2,-6.709192E-2,-2.026896E-2,1.0563602E-1,-8.549617E-3,-1.58694E-2,1.9515548E-2,2.8267872E-4,4.6384096E-2,-9.593244E-3,-5.9280343E-2,2.4386708E-2,-8.046064E-3,1.1920585E-1,2.1064797E-2,1.12198494E-1,5.565373E-2,1.0893779E-1,3.6409717E-2,-3.2085832E-2,-1.1517133E-1],"categories":[],"categories_nodes":[],"categories_segments":[],"categories_sizes":[],"default_left":[0,0,0,0,0,0,0,0,0,0,0,0,0,0,0,0,0,0,0,0,0,0,0,0,0,0,0,0,0,0,0,0,0,0,0,0,0,0,0,0,0,0,0,0,0,0,0,0,0,0,0,0,0,0,0,0,0,0,0,0,0,0,0],"id":18,"left_children":[1,3,5,7,9,11,13,15,17,19,21,23,25,27,29,31,33,35,37,39,41,43,45,47,49,51,53,55,57,59,61,-1,-1,-1,-1,-1,-1,-1,-1,-1,-1,-1,-1,-1,-1,-1,-1,-1,-1,-1,-1,-1,-1,-1,-1,-1,-1,-1,-1,-1,-1,-1,-1],"loss_changes":[3.6515906E3,1.2501438E3,1.4380532E3,2.9681348E2,7.157661E2,1.3705209E3,5.0315308E2,8.075192E2,8.5018243E2,4.6941162E2,6.0603705E2,3.8711157E2,9.560381E2,4.3348804E2,1.1584965E3,3.8617148E2,1.7014346E3,1.8244092E2,6.120293E2,6.922461E1,2.8294873E2,4.6147583E2,4.1514557E2,6.148983E2,5.335403E2,7.923943E2,7.550548E2,2.9380963E2,3.396875E1,3.298401E2,1.7712393E2,0E0,0E0,0E0,0E0,0E0,0E0,0E0,0E0,0E0,0E0,0E0,0E0,0E0,0E0,0E0,0E0,0E0,0E0,0E0,0E0,0E0,0E0,0E0,0E0,0E0,0E0,0E0,0E0,0E0,0E0,0E0,0E0],"parents":[2147483647,0,0,1,1,2,2,3,3,4,4,5,5,6,6,7,7,8,8,9,9,10,10,11,11,12,12,13,13,14,14,15,15,16,16,17,17,18,18,19,19,20,20,21,21,22,22,23,23,24,24,25,25,26,26,27,27,28,28,29,29,30,30],"right_children":[2,4,6,8,10,12,14,16,18,20,22,24,26,28,30,32,34,36,38,40,42,44,46,48,50,52,54,56,58,60,62,-1,-1,-1,-1,-1,-1,-1,-1,-1,-1,-1,-1,-1,-1,-1,-1,-1,-1,-1,-1,-1,-1,-1,-1,-1,-1,-1,-1,-1,-1,-1,-1],"split_conditions":[-1.15129836E-1,1E0,3.929719E-1,1.2833778E0,-1.7204107E-1,-3.101127E-1,1E0,5.922944E-1,1.686724E0,-3.3237156E-1,9.6898824E-1,-9.245138E-2,4.60706E-1,3.0705304E0,1.6796345E-2,-1.4187203E-1,-1.4214475E0,5.27162E-1,-1.7807908E0,3.7526858E-1,1.2736267E0,-8.824327E-1,-1.6374625E-1,-1.6374625E-1,1.2554994E-1,-2.9106564E-3,1E0,-1.6374625E-1,4.6292434E0,4.06343E-1,1.1779348E0,-3.011163E-2,3.4078122E-3,2.6443592E-1,1.7931623E-2,4.0606216E-2,-9.765861E-2,-1.02905326E-1,9.416904E-2,-8.166388E-2,-5.8703043E-2,-4.277281E-2,3.999626E-2,-6.709192E-2,-2.026896E-2,1.0563602E-1,-8.549617E-3,-1.58694E-2,1.9515548E-2,2.8267872E-4,4.6384096E-2,-9.593244E-3,-5.9280343E-2,2.4386708E-2,-8.046064E-3,1.1920585E-1,2.1064797E-2,1.12198494E-1,5.565373E-2,1.0893779E-1,3.6409717E-2,-3.2085832E-2,-1.1517133E-1],"split_indices":[3,10,3,2,6,1,12,2,7,7,7,4,2,4,4,3,0,1,0,0,0,0,0,0,3,6,10,0,6,3,2,0,0,0,0,0,0,0,0,0,0,0,0,0,0,0,0,0,0,0,0,0,0,0,0,0,0,0,0,0,0,0,0],"split_type":[0,0,0,0,0,0,0,0,0,0,0,0,0,0,0,0,0,0,0,0,0,0,0,0,0,0,0,0,0,0,0,0,0,0,0,0,0,0,0,0,0,0,0,0,0,0,0,0,0,0,0,0,0,0,0,0,0,0,0,0,0,0,0],"sum_hessian":[1.6542436E5,4.270582E4,1.2271855E5,1.8539566E4,2.4166252E4,1.1356231E5,9.1562295E3,1.6326531E4,2.2130356E3,1.1659398E4,1.2506854E4,4.387941E4,6.968291E4,3.7549546E3,5.401275E3,1.4038234E4,2.2882969E3,1.4124166E3,8.006189E2,6.8790356E3,4.7803633E3,1.120618E4,1.3006741E3,3.1420275E4,1.2459136E4,4.065351E4,2.9029395E4,1.9120613E3,1.8428933E3,4.353694E3,1.0475812E3,6.006098E3,8.0321357E3,3.2565997E2,1.962637E3,1.0228487E2,1.3101318E3,2.1442973E2,5.861892E2,5.0849463E3,1.7940892E3,4.3246514E3,4.5571194E2,2.8093057E3,8.396874E3,5.534657E2,7.472084E2,6.090953E3,2.5329322E4,3.4859666E3,8.973169E3,3.7141066E4,3.5124456E3,1.6037042E4,1.2992353E4,3.8023346E2,1.5318278E3,1.725713E3,1.1718033E2,7.594404E2,3.5942534E3,5.958474E2,4.5173373E2],"tree_param":{"num_deleted":"0","num_feature":"13","num_nodes":"63","size_leaf_vector":"1"}},{"base_weights":[-1.1058083E-2,-1.737213E-1,1.0578691E-1,-2.6336562E-2,-3.0961224E-1,3.710064E-2,2.761566E-1,-6.1937205E-2,3.680989E-1,-4.1465196E-1,-7.0149474E-2,-1.2794702E-1,1.5897575E-1,6.371369E-1,1.9282912E-1,-1.8912943E-1,4.4036474E-2,-2.1914972E-1,7.155997E-1,-4.3392405E-1,3.600384E-1,-1.8889342E-1,1.650122E-1,-1.4686674E-1,6.0250956E-1,4.6883482E-1,9.7603895E-2,8.509031E-1,-8.815261E-2,1.22524045E-1,6.119569E-1,-1.075175E-2,-4.4957224E-2,1.0309209E-2,-2.8525388E-2,-4.082513E-2,4.726116E-2,-3.0300259E-3,9.165296E-2,6.0282875E-2,-4.48614E-2,9.106543E-2,-2.7456183E-2,-5.8080103E-2,-8.324959E-3,1.3715683E-1,1.0295807E-2,-1.083486E-3,-2.3298087E-2,-1.6951798E-2,9.1203816E-2,2.7879924E-2,6.072354E-2,2.3122684E-3,3.750454E-2,3.2245573E-2,1.0007236E-1,-2.6370203E-2,1.3285945E-1,1.9267645E-2,-1.1741944E-1,2.3699868E-2,9.8129235E-2],"categories":[],"categories_nodes":[],"categories_segments":[],"categories_sizes":[],"default_left":[0,0,0,0,0,0,0,0,0,0,0,0,0,0,0,0,0,0,0,0,0,0,0,0,0,0,0,0,0,0,0,0,0,0,0,0,0,0,0,0,0,0,0,0,0,0,0,0,0,0,0,0,0,0,0,0,0,0,0,0,0,0,0],"id":19,"left_children":[1,3,5,7,9,11,13,15,17,19,21,23,25,27,29,31,33,35,37,39,41,43,45,47,49,51,53,55,57,59,61,-1,-1,-1,-1,-1,-1,-1,-1,-1,-1,-1,-1,-1,-1,-1,-1,-1,-1,-1,-1,-1,-1,-1,-1,-1,-1,-1,-1,-1,-1,-1,-1],"loss_changes":[3.1192437E3,1.3740308E3,1.1176052E3,4.6216104E2,8.977556E2,1.3692317E3,8.2521484E2,4.069457E2,5.562175E2,3.7058643E2,3.0398425E2,3.9962634E2,7.445125E2,7.979678E2,6.568563E2,2.9155276E2,3.2026868E2,1.3277316E2,2.5670892E2,3.6895703E2,2.1089618E2,2.993715E2,2.731734E2,3.3013135E2,1.7468405E2,1.6998181E2,6.753448E2,3.1422363E2,2.9177725E2,1.7371691E3,4.431228E2,0E0,0E0,0E0,0E0,0E0,0E0,0E0,0E0,0E0,0E0,0E0,0E0,0E0,0E0,0E0,0E0,0E0,0E0,0E0,0E0,0E0,0E0,0E0,0E0,0E0,0E0,0E0,0E0,0E0,0E0,0E0,0E0],"parents":[2147483647,0,0,1,1,2,2,3,3,4,4,5,5,6,6,7,7,8,8,9,9,10,10,11,11,12,12,13,13,14,14,15,15,16,16,17,17,18,18,19,19,20,20,21,21,22,22,23,23,24,24,25,25,26,26,27,27,28,28,29,29,30,30],"right_children":[2,4,6,8,10,12,14,16,18,20,22,24,26,28,30,32,34,36,38,40,42,44,46,48,50,52,54,56,58,60,62,-1,-1,-1,-1,-1,-1,-1,-1,-1,-1,-1,-1,-1,-1,-1,-1,-1,-1,-1,-1,-1,-1,-1,-1,-1,-1,-1,-1,-1,-1,-1,-1],"split_conditions":[-8.161047E-3,1E0,1E0,1.3450865E-1,1.1703121E-1,1.2554994E-1,-6.886233E-1,1E0,-3.1217402E-1,-9.245138E-2,9.4890475E-2,2.0933185E0,1.3892104E-1,1.2554994E-1,5.810361E-1,9.4099814E-1,4.820818E-1,1.642223E-1,-5.7839113E-1,-1.8227841E0,-8.204684E-2,-1.444741E-1,-1.7286212E0,-9.581725E-2,-1.3406956E-1,-9.245138E-2,3.929719E-1,-1.0630916E0,-1.6327804E-1,5.718389E-1,1E0,-1.075175E-2,-4.4957224E-2,1.0309209E-2,-2.8525388E-2,-4.082513E-2,4.726116E-2,-3.0300259E-3,9.165296E-2,6.0282875E-2,-4.48614E-2,9.106543E-2,-2.7456183E-2,-5.8080103E-2,-8.324959E-3,1.3715683E-1,1.0295807E-2,-1.083486E-3,-2.3298087E-2,-1.6951798E-2,9.1203816E-2,2.7879924E-2,6.072354E-2,2.3122684E-3,3.750454E-2,3.2245573E-2,1.0007236E-1,-2.6370203E-2,1.3285945E-1,1.9267645E-2,-1.1741944E-1,2.3699868E-2,9.8129235E-2],"split_indices":[3,10,11,5,7,3,7,11,2,4,5,7,3,3,1,2,1,5,1,1,4,4,1,1,4,4,3,2,2,1,12,0,0,0,0,0,0,0,0,0,0,0,0,0,0,0,0,0,0,0,0,0,0,0,0,0,0,0,0,0,0,0,0],"split_type":[0,0,0,0,0,0,0,0,0,0,0,0,0,0,0,0,0,0,0,0,0,0,0,0,0,0,0,0,0,0,0,0,0,0,0,0,0,0,0,0,0,0,0,0,0,0,0,0,0,0,0,0,0,0,0,0,0,0,0,0,0,0,0],"sum_hessian":[1.6411327E5,6.8605695E4,9.550756E4,3.2911953E4,3.5693746E4,6.806733E4,2.7440232E4,3.0188334E4,2.723618E3,2.4809832E4,1.0883915E4,2.8912336E4,3.9154992E4,5.144794E3,2.2295438E4,1.3720641E4,1.6467691E4,1.0125577E3,1.7110603E3,2.4208172E4,6.0166144E2,7.23251E3,3.651405E3,2.818329E4,7.2904614E2,6.471733E3,3.268326E4,3.9736082E3,1.171186E3,1.90941E4,3.2013398E3,1.0448358E4,3.272283E3,1.3964297E4,2.5033955E3,7.9561957E2,2.1693811E2,3.6318436E2,1.347876E3,3.3756287E2,2.3870607E4,3.2199902E2,2.796624E2,1.5345045E3,5.698005E3,1.774976E2,3.4739075E3,1.092604E4,1.725725E4,2.086814E2,5.2036475E2,2.728715E3,3.7430178E3,2.5767287E4,6.9159736E3,8.7856177E2,3.0950464E3,1.0428506E3,1.283354E2,1.8115006E4,9.790923E2,1.5895267E3,1.611813E3],"tree_param":{"num_deleted":"0","num_feature":"13","num_nodes":"63","size_leaf_vector":"1"}},{"base_weights":[-9.875091E-3,-2.3979156E-1,5.9203435E-2,-3.2129434E-1,4.0320095E-2,-1.5722637E-3,2.0744078E-1,-4.4224995E-1,-1.4255261E-1,-6.042165E-2,5.158272E-1,-1.1641362E-1,1.4353687E-1,3.90761E-1,1.4903489E-1,-5.3979707E-1,-2.0553131E-1,-2.8519863E-1,2.3526045E-2,-1.3177367E-1,4.0073097E-1,3.5451826E-1,9.892833E-1,-3.3068603E-1,-6.724246E-2,4.227334E-1,8.885584E-2,5.9630007E-2,5.949824E-1,1.0146211E0,1.2942126E-1,-6.556417E-2,-3.9371774E-2,1.4068024E-2,-3.586365E-2,-3.1816293E-2,9.945358E-2,-3.1822126E-3,6.876661E-2,-3.5499956E-2,7.885255E-3,6.945804E-2,2.3173206E-2,-5.1592212E-2,4.2520657E-2,1.06935196E-1,-1.2743057E-1,2.471122E-3,-4.6623755E-2,-1.2135745E-2,2.399587E-2,7.849967E-2,2.9209191E-2,-4.751226E-2,1.3087387E-2,1.1106742E-3,1.124601E-1,2.4471441E-2,8.364088E-2,-9.335671E-2,1.1463521E-1,7.4858265E-3,3.763048E-2],"categories":[],"categories_nodes":[],"categories_segments":[],"categories_sizes":[],"default_left":[0,0,0,0,0,0,0,0,0,0,0,0,0,0,0,0,0,0,0,0,0,0,0,0,0,0,0,0,0,0,0,0,0,0,0,0,0,0,0,0,0,0,0,0,0,0,0,0,0,0,0,0,0,0,0,0,0,0,0,0,0,0,0],"id":20,"left_children":[1,3,5,7,9,11,13,15,17,19,21,23,25,27,29,31,33,35,37,39,41,43,45,47,49,51,53,55,57,59,61,-1,-1,-1,-1,-1,-1,-1,-1,-1,-1,-1,-1,-1,-1,-1,-1,-1,-1,-1,-1,-1,-1,-1,-1,-1,-1,-1,-1,-1,-1,-1,-1],"loss_changes":[2.5834053E3,8.579927E2,1.1268792E3,6.292434E2,4.058503E2,1.4783108E3,3.8930176E2,4.006997E2,2.7841034E2,2.3004295E2,1.12634094E2,5.21682E2,5.9821765E2,5.940917E2,4.680617E2,2.0767651E2,2.6872504E2,2.6693097E2,1.996871E2,2.8473425E2,4.6265198E1,6.829129E1,6.943109E1,4.4529395E2,6.696205E2,3.033971E2,7.766658E2,1.7315208E2,4.592533E2,1.5787982E2,3.632913E2,0E0,0E0,0E0,0E0,0E0,0E0,0E0,0E0,0E0,0E0,0E0,0E0,0E0,0E0,0E0,0E0,0E0,0E0,0E0,0E0,0E0,0E0,0E0,0E0,0E0,0E0,0E0,0E0,0E0,0E0,0E0,0E0],"parents":[2147483647,0,0,1,1,2,2,3,3,4,4,5,5,6,6,7,7,8,8,9,9,10,10,11,11,12,12,13,13,14,14,15,15,16,16,17,17,18,18,19,19,20,20,21,21,22,22,23,23,24,24,25,25,26,26,27,27,28,28,29,29,30,30],"right_children":[2,4,6,8,10,12,14,16,18,20,22,24,26,28,30,32,34,36,38,40,42,44,46,48,50,52,54,56,58,60,62,-1,-1,-1,-1,-1,-1,-1,-1,-1,-1,-1,-1,-1,-1,-1,-1,-1,-1,-1,-1,-1,-1,-1,-1,-1,-1,-1,-1,-1,-1,-1,-1],"split_conditions":[-1.2850094E-1,1E0,1E0,1.9559698E-1,1E0,1.2554994E-1,-6.982793E-1,2.8406504E-1,-1.6699241E-1,1.4532982E0,1.14699565E-1,8.99382E-2,1.3892104E-1,-1.0157092E0,-1.6011192E0,-1.7204107E-1,8.498593E-2,1.7907912E-1,1.8126415E0,-1.6699241E-1,-1.7961408E-1,-1.0621043E0,1.3946094E-1,8.498593E-2,1.0324727E0,-5.2308947E-1,-1.2417759E0,3.4954365E-2,1.3450865E-1,-3.6824057E-1,2.1914762E-1,-6.556417E-2,-3.9371774E-2,1.4068024E-2,-3.586365E-2,-3.1816293E-2,9.945358E-2,-3.1822126E-3,6.876661E-2,-3.5499956E-2,7.885255E-3,6.945804E-2,2.3173206E-2,-5.1592212E-2,4.2520657E-2,1.06935196E-1,-1.2743057E-1,2.471122E-3,-4.6623755E-2,-1.2135745E-2,2.399587E-2,7.849967E-2,2.9209191E-2,-4.751226E-2,1.3087387E-2,1.1106742E-3,1.124601E-1,2.4471441E-2,8.364088E-2,-9.335671E-2,1.1463521E-1,7.4858265E-3,3.763048E-2],"split_indices":[3,11,11,0,12,3,2,2,6,0,5,5,3,2,0,6,5,5,0,6,6,0,5,5,2,0,0,6,5,2,3,0,0,0,0,0,0,0,0,0,0,0,0,0,0,0,0,0,0,0,0,0,0,0,0,0,0,0,0,0,0,0,0],"split_type":[0,0,0,0,0,0,0,0,0,0,0,0,0,0,0,0,0,0,0,0,0,0,0,0,0,0,0,0,0,0,0,0,0,0,0,0,0,0,0,0,0,0,0,0,0,0,0,0,0,0,0,0,0,0,0,0,0,0,0,0,0,0,0],"sum_hessian":[1.6265645E5,3.7579215E4,1.2507724E5,2.9109555E4,8.469661E3,8.870817E4,3.636907E4,1.7359941E4,1.1749612E4,6.989513E3,1.4801476E3,4.9519023E4,3.918915E4,8.785711E3,2.7583357E4,1.229267E4,5.067272E3,6.32065E3,5.428962E3,6.053772E3,9.3574115E2,1.1054688E3,3.7467883E2,9.241169E3,4.0277855E4,6.4168286E3,3.277232E4,3.3521736E3,5.4335376E3,6.099351E2,2.6973422E4,6.8535E3,5.43917E3,1.5535991E3,3.5136729E3,6.1627354E3,1.5791449E2,5.0120674E3,4.1689468E2,2.9388787E3,3.1148936E3,3.4031372E2,5.954274E2,8.245257E1,1.0230162E3,3.6243054E2,1.2248277E1,2.5515193E3,6.6896494E3,3.4246156E4,6.0316973E3,1.6992122E3,4.717616E3,2.271458E3,3.0500863E4,3.2071506E3,1.4502306E2,2.2180125E3,3.2155251E3,3.819643E1,5.717387E2,2.2092525E4,4.8808955E3],"tree_param":{"num_deleted":"0","num_feature":"13","num_nodes":"63","size_leaf_vector":"1"}},{"base_weights":[-8.489227E-3,-2.2372691E-1,5.519444E-2,-3.676677E-1,-8.171334E-2,4.0747013E-2,6.133425E-1,-5.4675126E-1,-1.75841E-1,-1.048972E-1,9.696914E-1,-2.0657508E-1,7.31907E-2,1.893498E-1,1.0415115E0,-3.2443097E-1,-6.69678E-1,3.0517599E-2,-2.7048236E-1,-1.8052515E-1,1.4029895E-1,2.247182E0,5.984996E-1,3.248541E-2,-3.0083817E-1,1.4734381E-1,-2.6148262E-2,9.615625E-1,-1.6084528E-2,1.1552665E0,8.190405E-1,-6.318815E-2,-1.7108703E-2,-7.59223E-2,-5.3364363E-2,8.603855E-2,-5.3257933E-3,-3.0405043E-2,6.337484E-2,-1.941648E-2,1.1377596E-1,4.8220246E-3,6.814016E-2,2.7128313E-2,2.8417784E-1,1.981916E-1,4.3248378E-2,-5.5842258E-2,1.9512834E-2,-1.4473311E-2,-5.311009E-2,1.206452E-3,3.278127E-2,-1.1011299E-2,1.5649166E-2,-7.168139E-2,1.2469089E-1,-1.4881541E-1,7.704084E-3,6.220412E-2,1.1606132E-1,9.6231945E-2,-8.8926174E-2],"categories":[],"categories_nodes":[],"categories_segments":[],"categories_sizes":[],"default_left":[0,0,0,0,0,0,0,0,0,0,0,0,0,0,0,0,0,0,0,0,0,0,0,0,0,0,0,0,0,0,0,0,0,0,0,0,0,0,0,0,0,0,0,0,0,0,0,0,0,0,0,0,0,0,0,0,0,0,0,0,0,0,0],"id":21,"left_children":[1,3,5,7,9,11,13,15,17,19,21,23,25,27,29,31,33,35,37,39,41,43,45,47,49,51,53,55,57,59,61,-1,-1,-1,-1,-1,-1,-1,-1,-1,-1,-1,-1,-1,-1,-1,-1,-1,-1,-1,-1,-1,-1,-1,-1,-1,-1,-1,-1,-1,-1,-1,-1],"loss_changes":[2.206962E3,7.513911E2,1.00180115E3,6.2699146E2,4.511194E2,9.7180835E2,5.687462E2,2.57698E2,1.7221512E2,3.3582013E2,1.8770322E2,3.1653302E2,7.8871E2,2.5018008E2,3.8317993E1,1.5839777E2,7.350635E1,1.9288602E2,1.8363571E2,2.4898611E2,2.1258682E2,1.0403317E2,7.028305E1,3.81855E2,3.619475E2,1.4966742E3,7.017982E2,1.5964062E2,1.7106451E2,2.0334473E0,1.3090393E2,0E0,0E0,0E0,0E0,0E0,0E0,0E0,0E0,0E0,0E0,0E0,0E0,0E0,0E0,0E0,0E0,0E0,0E0,0E0,0E0,0E0,0E0,0E0,0E0,0E0,0E0,0E0,0E0,0E0,0E0,0E0,0E0],"parents":[2147483647,0,0,1,1,2,2,3,3,4,4,5,5,6,6,7,7,8,8,9,9,10,10,11,11,12,12,13,13,14,14,15,15,16,16,17,17,18,18,19,19,20,20,21,21,22,22,23,23,24,24,25,25,26,26,27,27,28,28,29,29,30,30],"right_children":[2,4,6,8,10,12,14,16,18,20,22,24,26,28,30,32,34,36,38,40,42,44,46,48,50,52,54,56,58,60,62,-1,-1,-1,-1,-1,-1,-1,-1,-1,-1,-1,-1,-1,-1,-1,-1,-1,-1,-1,-1,-1,-1,-1,-1,-1,-1,-1,-1,-1,-1,-1,-1],"split_conditions":[-1.2850094E-1,-2.642562E-1,4.605201E0,-1.7204107E-1,-9.245138E-2,8.99382E-2,-4.273014E0,1E0,1E0,1E0,-2.5410214E-2,1E0,1E0,4.535843E0,-4.448707E-1,8.498593E-2,3.184952E-2,-1.5853317E0,1E0,1.7907912E-1,1.0974729E-1,-2.941557E-1,-4.0528908E-1,-6.629178E-1,-9.001104E-2,1E0,-9.245138E-2,-5.4106053E-2,-1.0190521E0,4.4645628E-1,-4.1937776E0,-6.318815E-2,-1.7108703E-2,-7.59223E-2,-5.3364363E-2,8.603855E-2,-5.3257933E-3,-3.0405043E-2,6.337484E-2,-1.941648E-2,1.1377596E-1,4.8220246E-3,6.814016E-2,2.7128313E-2,2.8417784E-1,1.981916E-1,4.3248378E-2,-5.5842258E-2,1.9512834E-2,-1.4473311E-2,-5.311009E-2,1.206452E-3,3.278127E-2,-1.1011299E-2,1.5649166E-2,-7.168139E-2,1.2469089E-1,-1.4881541E-1,7.704084E-3,6.220412E-2,1.1606132E-1,9.6231945E-2,-8.8926174E-2],"split_indices":[3,7,4,6,4,5,5,10,12,11,7,12,10,6,2,5,8,2,11,5,5,2,5,7,8,12,4,7,7,3,5,0,0,0,0,0,0,0,0,0,0,0,0,0,0,0,0,0,0,0,0,0,0,0,0,0,0,0,0,0,0,0,0],"split_type":[0,0,0,0,0,0,0,0,0,0,0,0,0,0,0,0,0,0,0,0,0,0,0,0,0,0,0,0,0,0,0,0,0,0,0,0,0,0,0,0,0,0,0,0,0,0,0,0,0,0,0,0,0,0,0,0,0,0,0,0,0,0,0],"sum_hessian":[1.6100523E5,3.67607E4,1.2424454E5,1.8255334E4,1.8505365E4,1.2111089E5,3.1336519E3,9.440034E3,8.8153E3,1.8107094E4,3.9827264E2,1.4043923E4,1.0706697E5,1.5753467E3,1.5583053E3,3.36275E3,6.077284E3,2.7716152E3,6.0436846E3,1.3839216E4,4.267877E3,8.847039E1,3.0980228E2,3.971472E3,1.0072451E4,6.130524E4,4.576173E4,3.303586E2,1.244988E3,1.0280139E3,5.3029126E2,1.117806E3,2.244944E3,3.661666E3,2.4156182E3,2.5339964E2,2.5182156E3,5.8281E3,2.1558417E2,1.3698414E4,1.4080191E2,3.6483213E3,6.195559E2,2.0840364E1,6.763003E1,3.1957623E1,2.7784464E2,8.565262E2,3.1149458E3,6.004085E3,4.0683662E3,3.5040516E4,2.6264719E4,3.1350133E4,1.4411597E4,4.7733406E1,2.826252E2,7.324643E1,1.1717416E3,1.1556276E1,1.0164577E3,4.897132E2,4.0578087E1],"tree_param":{"num_deleted":"0","num_feature":"13","num_nodes":"63","size_leaf_vector":"1"}},{"base_weights":[-7.859935E-3,-2.0379925E-1,4.909458E-2,-3.2337755E-1,-6.3758336E-2,-6.036376E-3,1.8355358E-1,-1.3865446E-1,-4.4135594E-1,-1.0312678E-1,3.8432878E-1,-1.0442177E-1,1.17875226E-1,4.453152E-1,1.3175885E-1,-1.7142363E-1,8.130792E-1,-6.1318284E-1,-2.84843E-1,3.5405257E-1,-1.4808798E-1,-1.6908962E-1,6.015072E-1,-1.2065899E-1,4.798296E-1,3.7459797E-1,6.7855395E-2,2.9956171E-2,7.092721E-1,5.7790506E-1,1.0707768E-1,-3.4771744E-2,-5.3963442E-3,-2.7223198E-2,2.1218717E-1,-6.269756E-2,6.9868185E-2,2.833931E-2,-3.2496773E-2,-2.0692635E-2,5.9721787E-2,2.2537112E-2,-2.1305732E-2,5.645669E-3,-8.867238E-2,6.9927245E-2,-6.2471706E-2,-3.0443517E-2,-7.5409017E-3,5.8615327E-2,-5.2705176E-2,3.441357E-2,1.185282E-1,2.1939188E-2,-4.444335E-3,1.191612E-2,-6.810232E-2,1.0581189E-1,4.027431E-2,4.7772694E-2,1.1117673E-1,1.8327978E-2,4.6206644E-4],"categories":[],"categories_nodes":[],"categories_segments":[],"categories_sizes":[],"default_left":[0,0,0,0,0,0,0,0,0,0,0,0,0,0,0,0,0,0,0,0,0,0,0,0,0,0,0,0,0,0,0,0,0,0,0,0,0,0,0,0,0,0,0,0,0,0,0,0,0,0,0,0,0,0,0,0,0,0,0,0,0,0,0],"id":22,"left_children":[1,3,5,7,9,11,13,15,17,19,21,23,25,27,29,31,33,35,37,39,41,43,45,47,49,51,53,55,57,59,61,-1,-1,-1,-1,-1,-1,-1,-1,-1,-1,-1,-1,-1,-1,-1,-1,-1,-1,-1,-1,-1,-1,-1,-1,-1,-1,-1,-1,-1,-1,-1,-1],"loss_changes":[1.786844E3,6.037986E2,9.196228E2,4.2377344E2,2.9303104E2,1.0726035E3,4.889795E2,2.3655997E2,3.189265E2,3.1391354E2,1.6138443E2,4.652766E2,4.9996027E2,6.5314844E2,3.3150494E2,1.5175212E2,3.5937122E2,1.0278052E2,1.4176349E2,1.8668576E2,3.3739832E2,6.1435326E1,1.15986176E2,3.9675623E2,1.4228778E2,1.5623499E2,5.546434E2,1.4693431E2,3.8896912E2,8.372174E1,2.2280539E2,0E0,0E0,0E0,0E0,0E0,0E0,0E0,0E0,0E0,0E0,0E0,0E0,0E0,0E0,0E0,0E0,0E0,0E0,0E0,0E0,0E0,0E0,0E0,0E0,0E0,0E0,0E0,0E0,0E0,0E0,0E0,0E0],"parents":[2147483647,0,0,1,1,2,2,3,3,4,4,5,5,6,6,7,7,8,8,9,9,10,10,11,11,12,12,13,13,14,14,15,15,16,16,17,17,18,18,19,19,20,20,21,21,22,22,23,23,24,24,25,25,26,26,27,27,28,28,29,29,30,30],"right_children":[2,4,6,8,10,12,14,16,18,20,22,24,26,28,30,32,34,36,38,40,42,44,46,48,50,52,54,56,58,60,62,-1,-1,-1,-1,-1,-1,-1,-1,-1,-1,-1,-1,-1,-1,-1,-1,-1,-1,-1,-1,-1,-1,-1,-1,-1,-1,-1,-1,-1,-1,-1,-1],"split_conditions":[-1.2850094E-1,-1.5196821E-1,1E0,1E0,1.14699565E-1,1.2554994E-1,-6.886233E-1,1.3794239E0,-1.444741E-1,-1.6573542E0,-6.858506E-1,2.009103E0,1.3892104E-1,-1.0157092E0,-1.3088104E-1,-1.4967638E-1,5.0166114E-3,3.5294518E-1,1E0,7.5081386E-2,-1.155022E-1,2.4464466E-1,1.141449E0,-6.097721E-2,1.8438525E-1,4.641617E0,1E0,-4.0428653E-2,-2.7005896E-1,2.670567E0,-3.4565443E-1,-3.4771744E-2,-5.3963442E-3,-2.7223198E-2,2.1218717E-1,-6.269756E-2,6.9868185E-2,2.833931E-2,-3.2496773E-2,-2.0692635E-2,5.9721787E-2,2.2537112E-2,-2.1305732E-2,5.645669E-3,-8.867238E-2,6.9927245E-2,-6.2471706E-2,-3.0443517E-2,-7.5409017E-3,5.8615327E-2,-5.2705176E-2,3.441357E-2,1.185282E-1,2.1939188E-2,-4.444335E-3,1.191612E-2,-6.810232E-2,1.0581189E-1,4.027431E-2,4.7772694E-2,1.1117673E-1,1.8327978E-2,4.6206644E-4],"split_indices":[3,7,11,10,5,3,7,1,4,1,1,7,3,2,8,4,8,2,12,5,8,8,1,8,8,4,10,4,1,7,1,0,0,0,0,0,0,0,0,0,0,0,0,0,0,0,0,0,0,0,0,0,0,0,0,0,0,0,0,0,0,0,0],"split_type":[0,0,0,0,0,0,0,0,0,0,0,0,0,0,0,0,0,0,0,0,0,0,0,0,0,0,0,0,0,0,0,0,0,0,0,0,0,0,0,0,0,0,0,0,0,0,0,0,0,0,0,0,0,0,0,0,0,0,0,0,0,0,0],"sum_hessian":[1.601135E5,3.6059164E4,1.24054336E5,1.9449545E4,1.660962E4,8.7980664E4,3.607367E4,7.5816694E3,1.1867874E4,1.5269088E4,1.3405323E3,4.904225E4,3.8938418E4,5.957247E3,3.0116426E4,7.330208E3,2.5146178E2,5.655479E3,6.2123955E3,1.3663652E3,1.3902723E4,3.7773682E2,9.627956E2,4.7717086E4,1.3251647E3,6.348217E3,3.25902E4,2.3153442E3,3.6419026E3,1.5773411E3,2.8539086E4,2.9299255E3,4.400282E3,1.3785864E2,1.1360314E2,5.597229E3,5.8250065E1,4.0917694E2,5.8032188E3,4.1309613E2,9.532691E2,2.0596072E3,1.1843115E4,2.8800217E2,8.973465E1,8.921749E2,7.062066E1,9.426162E3,3.829092E4,1.1990642E3,1.26100395E2,6.1198066E3,2.2841022E2,1.3871655E4,1.8718545E4,2.0580928E3,2.5725134E2,1.7020726E3,1.9398301E3,1.329875E3,2.4746608E2,1.6365517E4,1.2173568E4],"tree_param":{"num_deleted":"0","num_feature":"13","num_nodes":"63","size_leaf_vector":"1"}},{"base_weights":[-7.936977E-3,-1.7809089E-1,4.7442034E-2,-2.9136243E-1,-1.6267609E-2,2.4261178E-2,3.437445E-1,-4.1503167E-1,-1.0067321E-1,-7.169434E-2,3.1111354E-1,-2.7877077E-2,1.4911339E-1,7.3996073E-1,2.1784222E-1,-6.1102396E-1,-2.2178543E-1,-1.6048637E-1,5.061483E-1,-1.07038215E-1,3.6356065E-1,-4.452305E-2,5.031186E-1,-6.2100846E-2,2.76861E-1,4.105903E-1,9.727073E-2,8.8837063E-1,-3.963833E-1,1.12926416E-1,8.853569E-1,-6.568195E-2,-2.6427275E-2,1.4475263E-2,-3.6002927E-2,-2.102015E-2,4.7886707E-2,-4.7567572E-2,6.649097E-2,-8.083751E-3,-9.200422E-2,9.9571206E-2,1.5560204E-2,-1.18286135E-2,1.5709634E-1,6.051888E-2,-8.88961E-4,-3.4218393E-3,-4.626482E-2,-1.5568103E-2,4.2657264E-2,4.9552444E-2,-1.17740035E-1,8.958744E-2,8.188238E-3,1.06171764E-1,2.6548019E-2,-7.98127E-2,7.316101E-2,7.5900346E-2,-5.203999E-4,1.2496318E-2,1.1304448E-1],"categories":[],"categories_nodes":[],"categories_segments":[],"categories_sizes":[],"default_left":[0,0,0,0,0,0,0,0,0,0,0,0,0,0,0,0,0,0,0,0,0,0,0,0,0,0,0,0,0,0,0,0,0,0,0,0,0,0,0,0,0,0,0,0,0,0,0,0,0,0,0,0,0,0,0,0,0,0,0,0,0,0,0],"id":23,"left_children":[1,3,5,7,9,11,13,15,17,19,21,23,25,27,29,31,33,35,37,39,41,43,45,47,49,51,53,55,57,59,61,-1,-1,-1,-1,-1,-1,-1,-1,-1,-1,-1,-1,-1,-1,-1,-1,-1,-1,-1,-1,-1,-1,-1,-1,-1,-1,-1,-1,-1,-1,-1,-1],"loss_changes":[1.4984464E3,7.1569946E2,8.239901E2,5.4156934E2,2.9176804E2,7.243294E2,4.3396204E2,5.2746265E2,3.280769E2,2.1157246E2,1.5903665E2,8.1860394E2,4.442442E2,3.542799E2,4.6251517E2,1.0956079E2,3.55642E2,2.6159485E2,1.2674835E2,2.7078607E2,1.3551176E2,9.739187E1,7.908807E1,7.880485E2,5.132811E2,7.3193964E2,3.3601895E2,2.0002783E2,1.1071362E2,4.3594873E2,1.6692706E2,0E0,0E0,0E0,0E0,0E0,0E0,0E0,0E0,0E0,0E0,0E0,0E0,0E0,0E0,0E0,0E0,0E0,0E0,0E0,0E0,0E0,0E0,0E0,0E0,0E0,0E0,0E0,0E0,0E0,0E0,0E0,0E0],"parents":[2147483647,0,0,1,1,2,2,3,3,4,4,5,5,6,6,7,7,8,8,9,9,10,10,11,11,12,12,13,13,14,14,15,15,16,16,17,17,18,18,19,19,20,20,21,21,22,22,23,23,24,24,25,25,26,26,27,27,28,28,29,29,30,30],"right_children":[2,4,6,8,10,12,14,16,18,20,22,24,26,28,30,32,34,36,38,40,42,44,46,48,50,52,54,56,58,60,62,-1,-1,-1,-1,-1,-1,-1,-1,-1,-1,-1,-1,-1,-1,-1,-1,-1,-1,-1,-1,-1,-1,-1,-1,-1,-1,-1,-1,-1,-1,-1,-1],"split_conditions":[-1.15129836E-1,3.7526858E-1,3.929719E-1,-2.5410214E-2,1.6329699E0,1E0,-5.687748E-1,-1.7204107E-1,1.14699565E-1,1.3225402E0,-1.4187203E-1,1.4532982E0,-6.886233E-1,2.9793367E-1,4.8427272E-1,-2.2250335E-1,1E0,2.0933185E0,1E0,1.346568E0,-7.955799E-2,2.1719847E0,7.50433E-1,3.261164E-1,1E0,4.6623475E-3,-1.6011192E0,9.142834E-1,1.4532982E0,4.06343E-1,4.020254E-1,-6.568195E-2,-2.6427275E-2,1.4475263E-2,-3.6002927E-2,-2.102015E-2,4.7886707E-2,-4.7567572E-2,6.649097E-2,-8.083751E-3,-9.200422E-2,9.9571206E-2,1.5560204E-2,-1.18286135E-2,1.5709634E-1,6.051888E-2,-8.88961E-4,-3.4218393E-3,-4.626482E-2,-1.5568103E-2,4.2657264E-2,4.9552444E-2,-1.17740035E-1,8.958744E-2,8.188238E-3,1.06171764E-1,2.6548019E-2,-7.98127E-2,7.316101E-2,7.5900346E-2,-5.203999E-4,1.2496318E-2,1.1304448E-1],"split_indices":[3,0,3,7,0,11,7,6,5,7,3,0,7,5,8,7,12,7,12,2,8,0,2,3,12,6,0,0,0,3,2,0,0,0,0,0,0,0,0,0,0,0,0,0,0,0,0,0,0,0,0,0,0,0,0,0,0,0,0,0,0,0,0],"split_type":[0,0,0,0,0,0,0,0,0,0,0,0,0,0,0,0,0,0,0,0,0,0,0,0,0,0,0,0,0,0,0,0,0,0,0,0,0,0,0,0,0,0,0,0,0,0,0,0,0,0,0,0,0,0,0,0,0,0,0,0,0,0,0],"sum_hessian":[1.5901758E5,3.9046246E4,1.19971336E5,2.2967941E4,1.6078305E4,1.1126785E5,8.703482E3,1.3931276E4,9.036664E3,1.3751257E4,2.3270476E3,7.84903E4,3.2777555E4,2.0973672E3,6.606115E3,6.9151655E3,7.016111E3,8.226678E3,8.099865E2,1.2719392E4,1.0318651E3,8.1595746E2,1.51109E3,7.056642E4,7.9238745E3,5.4219946E3,2.735556E4,1.855358E3,2.4200912E2,5.709976E3,8.961395E2,6.1073804E3,8.077848E2,1.9212802E3,5.0948306E3,7.6339053E3,5.9277277E2,1.1237887E2,6.976076E2,1.2323466E4,3.9592627E2,2.5436844E2,7.7749664E2,7.8127325E2,3.4684242E1,1.2599323E3,2.5115771E2,6.597517E4,4.5912544E3,2.0372394E3,5.8866353E3,5.1474336E3,2.745611E2,5.159467E2,2.6839613E4,1.4507559E3,4.0460226E2,1.7873305E2,6.327608E1,8.819346E2,4.8280415E3,2.1890305E2,6.7723645E2],"tree_param":{"num_deleted":"0","num_feature":"13","num_nodes":"63","size_leaf_vector":"1"}},{"base_weights":[-5.671432E-3,-1.7331594E-1,4.1961666E-2,-2.452602E-1,6.400203E-2,3.0894967E-2,